tree
version=v4
num_class=3
num_tree_per_iteration=3
label_index=0
max_feature_idx=8
objective=multiclass num_class:3
feature_names=rsi_14 macd_hist_norm bb_pct ema_dev_pct volume_ratio adx stoch_k stoch_d stoch_crossover
feature_infos=[0:99.917289733886719] [-5:5] [0:1] [-0.20000000298023224:0.20000000298023224] [0.00073310791049152613:5] [3.4166617393493652:99.707740783691406] [0:100] [0.23980815708637238:99.768516540527344] [-1:1]
tree_sizes=3364 3349 3365 3495 3499 3495 3469 3511 3493 3489 3507 3516 3484 3508 3502 3503 3507 3502 3491 3504 3503 3476 3521 3496 3470 3522 3498 3518 3497 3500 3480 3510 3530 3491 3520 3512 3498 3521 3519 3474 3516 3505 3512 3506 3463 3508 3508 3521 3514 3486 3524 3484 3516 3475 3491 3505 3486 3496 3505 3464 3516 3513 3486 3506 3525 3500 3514 3509 3507 3505 3510 3498 3465 3521 3484 3487 3520 3521 3487 3516 3478 3504 3524 3506 3512 3512 3514 3482 3516 3529 3514 3523 3488 3495 3492 3505 3495 3469 3495 3497 3487 3479 3463 3511 3484 3495 3533 3488 3522 3509 3479 3500 3514 3484 3507 3500 3459 3509 3529 3459 3483 3519 3477 3482 3498 3468 3496 3516 3490 3460 3541 3497 3501 3543 3499 3471 3501 3465 3444 3513 3409 3478 3534 3488 3483 3499 3418 3445 3469 3401 3464 3518 3512 3465 3511 3445 3444 3549 3422 3500 3501 3451 3469 3507 3466 3510 3545 3444 3475 3508 3470 3455 3534 3514 3502 3520 3487 3497 3557 3495 3486 3479 3482 3493 3492 3490 3453 3531 3502 3448 3524 3485 3436 3515 3494 3459 3505 3472 3466 3536 3470 3451 3537 3510 3474 3523 3505 3455 3521 3468 3485 3518 3465 3475 3506 3491 3474 3527 3477 3480 3515 3507 3482 3459 3455 3447 3444 3454 3427 3497 3434 3498 3477 3501 3477 3467 3473 3435 3530 3440 3455 3531 3424 3471 3485 3418 3497 3522 3439 3456 3505 3409 3487 3482 3420 3449 3486 3457 3468 3454 3412 3451 3462 3461 3483 3435 3487 3458 3509 3472 3478 3521 3482 3443 3449 3442 3452 3490 3453 3411 3501 3449 3465 3431 3470 3466 3418 3464 3470 3508 3449 3438 3422 3469 3415 3482 3486 3436 3493 3474 3491 3493 3452 3413 3478 3448 3424 3507 3478 3421 3488 3457 3448 3466 3454 3456 3512 3435 3460 3442 3425 3471 3482 3453 3447 3497 3408 3421 3467 3433 3478 3483 3471 3485 3454 3455 3472 3445 3446 3481 3508 3461 3443 3462 3498 3460 3460 3467 3428 3477 3463 3441 3485 3432 3434 3470 3431 3439 3449 3441 3455 3516 3427 3431 3462 3406 3466 3445 3450 3425 3515 3399 3462 3524 3394 3490 3435 3476 3458 3414 3463 3449 3431 3444 3462 3429 3488 3454 3417 3429 3450 3487 3441 3473 3485 3423 3444 3500 3435 3476 3489 3421 3420 3495 3433 3465 3445 3451 3438 3446 3466 3442 3457 3472 3444 3434 3464 3449 3419 3416 3451 3442 3455 3474 3461 3436 3444 3436 3461 3469 3470 3446 3473 3433 3460 3434 3462 3412 3425 3457 3456 3428 3404 3434 3439 3448 3448 3425 3448 3438 3445 3497 3464 3455 3485 3462 3462 3494 3444 3456 3461 3442 3466 3477 3439 3471 3414 3441 3434 3515 3447 3459 3539 3445 3433 3465 3466 3440 3488 3431 3457 3455 3465 3454 3482 3447 3464 3474 3458 3438 3490 3483 3452 3434 3472 3464 3470 3441 3492 3459 3473 3490 3517 3465 3465 3529 3460 3444 3468 3457 3462 3447 3452 3420 3441 3463 3456 3437 3467 3422 3457 3442 3419 3420 3484 3473 3477 3455 3456 3451 3459 3406 3424 3456 3448 3466 3435 3430 3476 3434 3455 3473 3420 3487 3432 3463 3421 3428 3465 3502 3466 3457 3434 3484 3425 3437 3425 3448 3455 3446 3452 3446 3465 3484 3461 3440 3454 3450 3435 3444 3427 3463 3422 3447 3437 3440 3505 3457 3463 3458 3465 3437 3440 3439 3465 3413 3452 3428 3446 3480 3431 3466 3414 3437 3437 3403 3443 3447 3406 3432 3424 3425 3416 3424 3437 3446 3413 3455 3436 3430 3449 3448 3409 3420 3436 3453 3432 3434 3478 3445 3448 3478 3424 3461 3446 3454 3459 3471 3429 3463 3400 3418 3449 3418 3504 3424 3445 3493 3444 3452 3459 3434 3395 3439 3460 3415 3442 3451 3453 3423 3488 3474 3500 3440 3416 3444 3445 3404 3447 3451 3432 3425 3451 3429 3449 3446 3447 3440 3436 3427 3458 3469 3425 3435 3452 3438 3461 3427 3433 3449 3445 3431 3450 3428 3427 3454 3439 3434 3479 3441 3387 3437 3453 3427 3463 3443 3426 3470 3427 3435 3438 3434 3420 3417 3447 3430 3448 3476 3444 3480 3455 3415 3449 3434 3421 3449 3479 3429 3427 3455 3458 3477 3443 3435 3446 3479 3448 3489 3442 3440 3422 3448 3430 3431 3452 3404 3458 3425 3431 3498 3445 3396 3461 3474 3449 3486 3448 3416 3442 3435 3437 3460 3442 3434 3399 3420 3424 3445 3440 3417 3419 3430 3432 3412 3451 3437 3466 3431 3446 3459 3423 3446 3473 3427 3469 3471 3417 3439 3463 3473 3437 3444 3418 3450 3496 3426 3430 3450 3413 3431 3436 3453 3437 3488 3453 3458 3463 3436 3462 3506 3403 3463 3461 3393 3480 3429 3431 3465 3445 3413 3444 3436 3442 3444 3420 3423 3474 3442 3433 3414 3421 3428 3407 3426 3417 3436 3474 3445 3485 3469 3442 3433 3451 3463 3433 3478 3457 3462 3453 3465 3487 3440 3473 3425 3445 3470 3462 3475 3446 3445 3500 3438 3440 3457 3470

Tree=0
num_leaves=31
num_cat=0
split_feature=3 3 3 1 1 4 3 1 4 3 0 1 0 7 0 0 1 7 4 3 7 0 4 4 1 4 4 3 3 6
split_gain=409.033 145.293 111.948 98.5293 71.1636 54.6888 50.8749 41.5968 40.9374 39.8893 36.0166 59.565 29.9919 28.8829 27.2007 24.4114 22.8242 21.6689 21.3805 21.3081 20.6149 19.5925 19.2208 21.753 19.1007 19.0288 18.7915 22.3949 17.9565 17.7088
threshold=-0.03322359919548034 0.029951020143926147 -0.091040495783090578 0.96411079168319713 -1.9836742877960203 1.569064259529114 -0.01452000020071864 3.8307118415832524 1.1885251998901369 -0.0033174697309732433 38.97740554809571 -0.24946867674589154 23.106293678283695 77.00016021728517 22.603190422058109 32.061138153076179 0.4359219372272492 9.7869219779968279 0.58277264237403881 0.090265348553657546 80.064804077148452 71.951473236083999 1.4124618768692019 0.4143729060888291 -3.736973643302917 0.69052147865295421 0.39714489877223974 -0.054338609799742692 0.010712135117501022 50.003385543823249
decision_type=2 2 2 2 2 2 2 2 2 2 2 2 2 2 2 2 2 2 2 2 2 2 2 2 2 2 2 2 2 2
left_child=2 3 22 4 17 6 15 29 13 -9 -8 -12 18 25 -7 -6 20 -2 -4 -10 -15 -11 23 -1 -19 -3 -14 -28 -13 -5
right_child=1 8 12 7 5 14 10 9 19 21 11 28 26 16 -16 -17 -18 24 -20 -21 -22 -23 -24 -25 -26 -27 27 -29 -30 -31
leaf_value=-1.0912027324480311 -1.1061037029581444 -1.0949956261605613 -1.1130009649163128 -1.0808757834675464 -1.1061714848524511 -1.1204438192981594 -1.1125788127395146 -1.0458098372087505 -1.0876344973616576 -1.1166262989532609 -1.1004957050680961 -1.1098108904340866 -1.0950102613043668 -1.1099917822399088 -1.0970721865893396 -1.0974222072051312 -1.1038966518467597 -1.0693945902038746 -1.0910454979145725 -1.0697343911691521 -1.0792527963531491 -1.0734058760695981 -1.0697704503778351 -1.0410189436358297 -1.0908976401506683 -1.0814774378547622 -1.0744507065503026 -1.0851710076120342 -1.1043928572043082 -1.0969716167975059
leaf_weight=24.611434549093246 207.25327709317207 672.76307918131351 128.36504249274731 177.91698618233204 1143.671881005168 129.82598458230495 2147.4137034714222 80.84789665043354 1402.5420217216015 46.771888852119446 3869.2378860712051 5070.1765117794275 324.06883430480957 75.322075247764587 3030.0772637724876 2631.9000427424908 1091.0656373649836 117.50815270841122 814.29033847153187 188.61225262284279 197.71983323991299 59.677563518285751 177.10251834988594 176.1252546608448 852.52642342448235 424.63744567334652 674.66736337542534 1752.8968731611967 2189.701762214303 4323.0108075737953
leaf_count=54 603 1755 410 477 3665 426 7254 192 3810 109 11950 17146 864 219 9181 7648 3032 276 2289 415 538 144 373 381 2346 1056 1604 4608 6990 12808
internal_value=-1.09856 -1.10057 -1.08369 -1.10194 -1.10338 -1.10407 -1.10519 -1.09537 -1.09176 -1.07229 -1.10665 -1.10551 -1.08634 -1.0958 -1.09803 -1.10007 -1.10066 -1.09143 -1.09404 -1.08551 -1.08773 -1.0924 -1.05776 -1.04717 -1.08829 -1.08976 -1.0837 -1.08219 -1.10818 -1.09634
internal_weight=34202.3 30130.2 4072.13 26077.5 21389.3 20212 17052.1 4688.23 4052.66 187.297 13276.5 11129.1 3694.29 2461.51 3159.9 3775.57 1364.11 1177.29 942.655 1591.15 273.042 106.449 377.839 200.737 970.035 1097.4 2751.63 2427.56 7259.88 4500.93
internal_count=102623 92040 10583 81215 67485 64260 54653 13730 10825 445 43340 36086 9775 6600 9607 11313 3789 3225 2699 4225 757 253 808 435 2622 2811 7076 6212 24136 13285
is_linear=0
shrinkage=1


Tree=1
num_leaves=31
num_cat=0
split_feature=4 4 5 4 4 5 2 5 0 2 2 5 4 2 5 0 6 7 0 6 0 0 5 6 2 2 7 6 5 6
split_gain=120.504 73.7732 50.556 38.3981 28.531 24.8463 14.3414 13.5151 19.5267 14.8738 14.3375 13.1471 11.2135 9.87845 9.72911 8.44527 8.39528 8.37093 11.4651 8.34082 11.8627 11.6801 9.78655 8.31919 7.6027 7.82224 7.57073 7.55388 7.34824 10.5284
threshold=1.2189313769340517 0.2669628113508225 41.453527450561531 2.1634197235107426 0.15684945136308673 53.635456085205085 0.62406873703002941 58.398986816406257 27.059298515319828 0.23978294432163241 0.32987652719020849 55.360897064208991 0.55686357617378246 0.58588516712188732 33.332664489746101 34.306829452514656 6.1271088123321542 17.886878013610843 41.766832351684577 53.000505447387702 56.219308853149421 26.699747085571293 20.881221771240238 17.949760437011722 0.2845235168933869 1.0000000180025095e-35 27.565202713012699 14.277645587921144 29.575346946716312 82.61527252197267
decision_type=2 2 2 2 2 2 2 2 2 2 2 2 2 2 2 2 2 2 2 2 2 2 2 2 2 2 2 2 2 2
left_child=1 4 12 5 6 13 23 8 24 -9 -10 -5 16 17 15 -6 -3 18 -2 21 -21 -18 -22 -1 25 -4 -13 -19 29 -14
right_child=3 2 7 11 14 -7 -8 9 10 -11 -12 26 28 -15 -16 -17 19 27 -20 20 22 -23 -24 -25 -26 -27 -28 -29 -30 -31
leaf_value=-1.0880538762023504 -1.0988922043204814 -1.0802197380144707 -1.0687640677971533 -1.1065313397289929 -1.064419722650537 -1.1077557818803681 -1.0891290802777271 -1.1098745879464869 -1.1042837999230841 -1.1013267377492535 -1.0983350465365662 -1.1227069552869868 -1.0963820392772015 -1.0973332847225024 -1.0925489835777438 -1.0858912178295728 -1.0824292447902035 -1.109349518200671 -1.0751048937748382 -1.0873281532775827 -1.0864258472521895 -1.0968717260275302 -1.096541377015438 -1.0559710311843393 -1.0658359074379153 -1.0931491873160568 -1.1096216790860978 -1.1018380662999276 -1.0983103604987414 -1.0901272507570898
leaf_weight=23.996664226055145 821.1837319880724 112.36884681880474 35.349085345864296 2663.0590147674084 50.121638342738152 1172.3884240686893 64.834581345319748 655.04921728372574 1410.2789156585932 2281.2916947603226 3594.6233732551336 210.36196826398373 4507.8535395413637 2406.64186835289 796.0644298940897 530.66484175622463 148.63392704725266 407.13366442918777 53.985776633024216 885.57057306170464 296.14999262988567 2407.8581732809544 1241.3734087496996 127.90381044149399 30.72253243625164 472.12547893822193 232.94063802063465 1881.4299382716417 3889.5326835662127 790.81560288369656
leaf_count=78 2458 386 131 7489 191 3262 209 1790 4041 6697 10807 511 13763 7292 2503 1752 503 1118 192 2894 974 7324 3785 513 116 1477 638 5500 11697 2532
internal_value=-1.09859 -1.0967 -1.09743 -1.10326 -1.0863 -1.10114 -1.06944 -1.10049 -1.09904 -1.10323 -1.10001 -1.10786 -1.09562 -1.09975 -1.08896 -1.08404 -1.09373 -1.10158 -1.09742 -1.09404 -1.09194 -1.09603 -1.09459 -1.06104 -1.08999 -1.09145 -1.11583 -1.10317 -1.09666 -1.09545
internal_weight=34202.3 24353.2 22759.6 9849.13 1593.59 6742.76 216.735 8479.44 5543.1 2936.34 5004.9 3106.36 14280.2 5570.37 1376.85 580.786 5091.95 3163.73 875.17 4979.59 2423.09 2556.49 1537.52 151.9 538.197 507.475 443.303 2288.56 9188.2 5298.67
internal_count=102623 74163 68917 28460 5246 19822 800 25059 16572 8487 14848 8638 43858 16560 4446 1943 15866 9268 2650 15480 7653 7827 4759 591 1724 1608 1149 6618 27992 16295
is_linear=0
shrinkage=1


Tree=2
num_leaves=31
num_cat=0
split_feature=3 7 4 3 3 2 0 0 3 0 6 7 6 7 7 2 3 2 0 6 2 2 6 2 0 4 4 2 6 2
split_gain=122.409 45.2278 40.036 29.7995 48.2022 24.9766 29.5329 20.308 26.9267 19.212 17.1957 16.8412 15.403 14.3502 16.4499 14.1578 17.4338 13.6226 23.6065 16.5073 12.2612 11.4698 11.6703 11.2982 11.2922 10.8208 10.7912 10.6309 10.6045 10.6005
threshold=0.037919767200946815 72.531230926513686 1.1885251998901369 0.014678175095468761 -0.011131405830383299 0.90582597255706798 75.486751556396499 78.022289276123061 0.020317579619586471 48.007261276245124 48.240209579467781 94.560756683349624 13.14171886444092 42.632087707519538 7.7844984531402597 0.620265692472458 -0.018791971728205677 0.015144317410886289 25.904295921325687 5.6731841564178476 0.7141672968864442 0.52285277843475353 32.755811691284187 0.83435699343681347 68.703144073486342 0.27964901924133306 1.096218526363373 0.41803166270256048 58.997386932373054 0.23978294432163241
decision_type=2 2 2 2 2 2 2 2 2 2 2 2 2 2 2 2 2 2 2 2 2 2 2 2 2 2 2 2 2 2
left_child=1 3 5 4 13 6 21 8 11 29 -11 15 -6 14 -1 -3 -17 19 -19 -16 -10 22 -2 -9 -22 -14 -18 -15 -28 -5
right_child=2 7 -4 9 12 -7 -8 23 20 10 -12 -13 25 27 17 16 26 18 -20 -21 24 -23 -24 -25 -26 -27 28 -29 -30 -31
leaf_value=-1.0896656176181174 -1.0789915675903596 -1.0967084138871432 -1.0957867385679683 -1.1019523064646608 -1.1077760913537635 -1.0729043947672616 -1.0998379921866308 -1.1196029748485219 -1.1092786924471538 -1.1041782935319742 -1.0932748297085131 -1.1253147826638668 -1.1073948837452021 -1.0903809249680565 -1.1031964271044754 -1.1221258245035819 -1.1024762223105151 -1.1050699418813472 -1.0977710735962789 -1.0914045472292668 -1.0913251046732413 -1.0805052965791091 -1.1150043741037401 -1.1065388140988834 -1.0998244933542716 -1.1005324369472465 -1.080754245119754 -1.0970581655871601 -1.1091715661269066 -1.0828114067785273
leaf_weight=581.94900169968605 40.078208327293396 632.45287039875984 1149.6235309243202 84.423752427101135 908.3666076362133 408.66558879613876 334.83437266945839 246.12171658873558 177.34677740931511 470.96953254938126 1557.1771740317345 91.586646169424057 613.25075075030327 1314.8996657431126 392.12105864286423 139.4301538169384 2794.4967437982559 1430.5332114696503 4910.3364479839802 1220.7948644161224 813.68965870141983 800.10002008080482 51.279739797115326 505.19540995359421 751.90730103850365 9075.5199567377567 33.862935245037079 1090.423308134079 1075.7558353543282 505.11610698699951
leaf_count=1712 94 1937 2947 222 2956 1037 942 815 505 1355 4548 307 2172 3563 1110 375 8909 4264 13988 3422 2389 2065 126 1604 2270 28871 92 3174 3468 1384
internal_value=-1.09868 -1.09957 -1.08864 -1.09853 -1.09915 -1.08361 -1.08718 -1.10303 -1.10214 -1.0935 -1.09581 -1.10408 -1.10155 -1.09682 -1.09778 -1.10367 -1.10475 -1.09837 -1.09942 -1.09427 -1.09682 -1.08242 -1.09921 -1.11082 -1.09541 -1.10097 -1.10413 -1.09341 -1.1083 -1.08555
internal_weight=34202.3 31417.7 2784.58 24155.9 21538.2 1634.96 1226.29 7261.85 6510.53 2617.69 2028.15 4767.59 10597.1 10941.1 8535.73 4676 4043.55 7953.79 6340.87 1612.92 1742.94 891.458 91.3579 751.317 1565.6 9688.77 3904.12 2405.32 1109.62 589.54
internal_count=102623 95412 7211 72741 65232 4264 3227 22671 20252 7509 5903 15088 33999 31233 24496 14781 12844 22784 18252 4532 5164 2285 220 2419 4659 31043 12469 6737 3560 1606
is_linear=0
shrinkage=1


Tree=3
num_leaves=31
num_cat=0
split_feature=3 3 3 1 1 3 2 1 3 7 7 1 5 5 3 6 7 3 5 5 3 7 1 7 7 1 5 5 1 2
split_gain=378.012 138.726 101.467 91.4518 65.3642 49.3341 38.9349 36.5898 36.1849 32.161 29.0722 47.2938 26.661 23.2652 24.7907 23.2363 23.1228 22.3295 22.1411 20.8081 20.4438 20.0407 19.9021 19.0421 19.2922 21.8075 18.4603 18.1202 17.5252 17.1294
threshold=-0.03322359919548034 0.029951020143926147 -0.091040495783090578 1.0610873103141787 -1.9836742877960203 -0.020325815305113789 0.69403380155563366 3.8307118415832524 -0.0074185575358569613 12.102416992187502 14.46364736557007 -0.61486947536468495 52.986383438110359 35.357156753540046 0.0066172687802463779 50.003385543823249 11.734355926513674 0.11132054030895235 60.581890106201179 60.581890106201179 -0.052232988178730004 9.7869219779968279 3.8307118415832524 79.13245010375978 30.894639968872074 -0.31557044386863703 22.301913261413578 19.758894920349125 -3.736973643302917 0.26217217743396765
decision_type=2 2 2 2 2 2 2 2 2 2 2 2 2 2 2 2 2 2 2 2 2 2 2 2 2 2 2 2 2 2
left_child=2 3 -1 4 21 9 16 15 -9 27 -7 -12 -11 23 -15 -5 20 19 -16 22 -4 26 29 24 -13 -26 -2 -6 -23 -3
right_child=1 17 6 7 5 10 -8 8 -10 12 11 13 -14 14 18 -17 -18 -19 -20 -21 -22 28 -24 -25 25 -27 -28 -29 -30 -31
leaf_value=0.038796077006672952 0.031757532016195036 0.053088508316401509 0.013061552125303057 0.0231398620652228 0.014993466056788652 -0.015577389308503838 0.069305231685581781 0.054976690585111003 0.0090711789491559249 0.0057511595388809421 -0.00090894509624747915 -0.014749051715833114 -0.0058197736875012854 -0.00746596283530763 0.002108518588489699 0.0018359059791717 0.013345953575900064 0.023470029854405508 -0.011963447887332796 0.012726728419275801 -0.0034771520510251119 0.027934226290668475 -0.0094692830958315374 -0.015007639409339114 0.00011848820501782382 -0.0081130949957527836 -0.012946632274350077 -0.018871608510663749 0.0074289935108056556 0.0048343247181649963
leaf_weight=383.28572359681129 26.488775014877319 18.515918582677841 325.74090859293938 132.41450661420822 46.097646802663803 782.90723213553429 29.177366062998772 65.865086227655411 123.26816530525684 1907.5541384369135 3925.2511411011219 888.77309857308865 673.63237275183201 2788.7977646440268 1699.0946210324764 3833.30693385005 2917.4626736789942 189.45600301027298 334.57327909767628 864.13989485800266 438.233787342906 118.66783344745636 253.98083743453026 1066.9713815152645 946.09470926225185 5379.8479886353016 180.14354233443737 275.99701967835426 854.7784343957901 2731.7019779980183
leaf_count=808 72 44 839 342 140 2660 63 152 293 5428 11892 3057 2077 9307 5437 11288 7547 400 1154 2401 1326 276 608 3742 2904 17250 531 867 2346 7372
internal_value=4.89503e-05 -0.00188935 0.014304 -0.00322885 -0.00451935 -0.00517138 0.0117742 0.00357194 0.0250576 0.000872432 -0.00615647 -0.00572336 0.0027314 -0.00716548 -0.00440462 0.00254724 0.0113182 0.00671008 -0.000206561 0.00588924 0.00357456 0.00692666 0.00392248 -0.00877314 -0.00785113 -0.006882 -0.00721588 -0.0140249 0.00992868 0.0051592
internal_weight=34202.2 30108.3 4093.9 26050.5 21895.7 20715.6 3710.61 4154.85 189.133 2903.28 17812.3 17029.4 2581.19 13104.2 4822.47 3965.72 3681.44 4057.79 2033.67 3868.34 763.975 1180.08 3004.2 8281.69 7214.72 6325.94 206.632 322.095 973.446 2750.22
internal_count=102623 92040 10583 81215 69140 65915 9775 12075 445 8512 57403 54743 7505 42851 15898 11630 9712 10825 6591 10425 2165 3225 8024 26953 23211 20154 603 1007 2622 7416
is_linear=0
shrinkage=0.05


Tree=4
num_leaves=31
num_cat=0
split_feature=3 3 1 1 3 3 3 7 3 0 0 1 0 7 0 0 3 1 7 1 1 3 1 2 1 7 5 1 3 2
split_gain=523.271 465.594 163.273 220.599 184.927 76.3615 74.2426 75.6692 68.3882 65.4942 60.9509 59.0133 55.4388 47.1194 46.9996 44.7337 40.8899 39.4396 54.9953 28.5516 23.3883 21.333 25.2423 32.6852 20.7703 24.8282 21.2159 20.6304 24.8963 33.23
threshold=-0.035455211997032159 0.029951020143926147 -1.1573583483695982 1.0221790075302126 -0.015159771312028168 0.054734349250793464 0.017263816669583324 79.13245010375978 -0.059368811547756188 29.079660415649418 28.452461242675785 2.2311719655990605 39.594282150268562 76.691967010498061 31.193346023559574 64.286594390869155 -0.0076627619564533225 0.58573663234710704 64.718280792236342 -2.2350875139236446 0.6267993450164796 0.0059345599729567775 0.34400144219398504 0.65325546264648449 -0.68637037277221669 29.86447906494141 35.020421981811531 -0.65649026632308949 -0.0071884861681610337 0.30719433724880224
decision_type=2 2 2 2 2 2 2 2 2 2 2 2 2 2 2 2 2 2 2 2 2 2 2 2 2 2 2 2 2 2
left_child=8 2 10 4 9 13 7 12 -1 -4 -2 -5 27 -3 -10 -8 -14 18 24 -12 -9 22 23 -20 -18 -26 -27 -6 -29 -30
right_child=1 5 3 11 6 -7 15 20 14 -11 19 -13 16 -15 -16 -17 17 -19 21 -21 -22 -23 -24 -25 25 26 -28 28 29 -31
leaf_value=-0.027586614064862253 0.0051724887397439539 -0.016605487405444454 0.013358356005130113 -0.00093905304533678903 0.013117032397490841 -0.023436856398588109 -0.0031685823257495689 0.033333231611055746 -0.0062927993543773729 -0.0040628197021509603 -0.01859575628444661 -0.015280871857840534 0.0027646061755296505 -0.0032291505561872387 -0.020226286503620645 0.011826468197035256 0.0029573207100386609 0.0022554851499488149 0.027548704510159401 -0.0062643839929607953 0.018401969036391748 0.015990506635389878 0.017482347077811333 0.061390136191472794 0.023695459263876083 0.0081340318918336572 0.016122073022183731 0.016446293877921275 0.045452926603424225 0.02039894913966124
leaf_weight=1215.1189040541649 1054.981011852622 1132.0976764112711 648.38896797597408 3515.5016579627991 836.05650390684605 1335.9588267505169 1311.0600411742926 499.37011145055294 1247.6605206131935 3212.3424426615238 601.45123668015003 901.12453877925873 1668.7251620739698 1573.3103241175413 1175.3804901689291 801.38791441917419 798.26081509888172 1020.8129507005215 249.25424847006798 2138.0701040774584 552.37155896425247 828.71965272724628 301.22064302861691 99.965628623962402 394.33740131556988 2761.8702998012304 1189.1134906113148 598.94846126437187 233.60306116938591 305.336546048522
leaf_count=2855 3294 2953 2150 10466 2767 3270 3835 1891 3559 9331 1540 2377 5114 4602 2965 2628 2450 3116 910 6097 1897 2799 1028 445 1404 8815 4020 2030 952 1063
internal_value=1.92058e-05 0.00215297 0.00456194 0.00616489 0.00858414 -0.0136563 0.0111813 0.0126643 -0.0179063 -0.00113703 -0.0050392 -0.00386522 0.011469 -0.00882658 -0.0130517 0.00252001 0.00985557 0.0114037 0.0128137 -0.00897169 0.0254914 0.0213102 0.028088 0.037236 0.0103704 0.0117322 0.0105382 0.0190803 0.0234619 0.0312586
internal_weight=34201.8 30563.6 26522.3 22727.8 18311.1 4041.37 14450.4 12338 3638.16 3860.73 3794.5 4416.63 11286.2 2705.41 2423.04 2112.45 9312.28 7643.56 6622.74 2739.52 1051.74 1479.16 650.441 349.22 5143.58 4345.32 3950.98 1973.94 1137.89 538.94
internal_count=102623 93244 82419 71488 58645 10825 47164 40701 9379 11481 10931 12843 36913 7555 6524 6463 30101 24987 21871 7637 3788 5182 2383 1355 16689 14239 12835 6812 4045 2015
is_linear=0
shrinkage=0.05


Tree=5
num_leaves=31
num_cat=0
split_feature=3 0 1 1 3 3 1 1 0 0 5 5 3 3 0 2 1 1 3 6 2 1 0 0 6 5 3 2 6 1
split_gain=116.201 42.6125 42.9625 40.9455 33.9577 49.706 37.3653 34.7857 33.5049 26.8736 26.6601 25.0746 24.8074 21.6373 21.1044 20.7034 20.6206 18.6701 18.4302 17.5896 18.3124 16.848 16.7306 16.3793 15.7254 15.496 15.4087 18.8181 15.3169 14.1835
threshold=0.037919767200946815 60.991558074951179 0.67017146944999706 3.8307118415832524 0.01436104252934456 -0.016406453214585778 -1.1573583483695982 0.68522647023201 81.619186401367202 78.022289276123061 31.479763984680179 43.997915267944343 0.01836048532277346 0.066458396613597884 45.497110366821296 0.76990050077438366 2.2311719655990605 2.5972970724105839 0.018744755536317829 12.373167037963869 0.62406873703002941 2.3103787899017338 64.774715423583999 48.007261276245124 44.980638504028327 11.53022623062134 -0.016100144945085045 0.66686055064201366 68.965713500976577 0.28752085566520696
decision_type=2 2 2 2 2 2 2 2 2 2 2 2 2 2 2 2 2 2 2 2 2 2 2 2 2 2 2 2 2 2
left_child=1 4 10 8 5 29 14 11 -2 12 15 19 26 -5 -7 -3 23 -14 -12 -8 25 -11 -19 -6 -25 -21 28 -28 -4 -1
right_child=3 2 9 13 16 6 7 -9 -10 21 18 -13 17 -15 -16 -17 -18 22 -20 20 -22 -23 -24 24 -26 -27 27 -29 -30 -31
leaf_value=0.001207559123587801 0.0099802864736925328 0.003651544363100008 0.0056123288347667 0.044449469868896675 0.012071771304579537 0.0018121918496093261 -0.012605963415804869 0.0025841044311500153 -0.005865990068674237 -0.015276299354979542 -0.019966353989017888 -0.010662773821896832 0.0038138112959178248 0.01753612701613232 0.01706774261217614 -0.010777134585986161 0.044954557407970636 0.064786516070824737 -0.0086753761939761306 0.0105965175685701 -0.0084520149702673325 0.0030351723708446129 0.016001354035670091 -0.006574494190126132 0.0050155970418210077 -0.0024466351770306744 0.012573161767377723 -0.0030887558756087594 -0.025450109267502758 0.0059612868571347569
leaf_weight=6940.1542041301727 2032.5776192545891 504.85848538577557 56.132283866405487 105.82182651758194 620.89636397361755 1678.3721110075712 520.75817629694939 1874.81871509552 399.06791199743748 499.18081021308899 693.88332794606686 1560.5136285275221 1113.1036871522665 253.77395524084568 262.10593673586845 489.83267958462238 32.83877757191658 20.721963301301003 754.30320851504803 237.00521056354046 1311.9568358212709 167.85431058704853 115.69097639620304 367.40483702719212 1438.612895399332 5810.5257129073143 212.56822155416012 1962.0718110501766 135.45225074887276 2027.5175732821226
leaf_count=19425 5241 1633 155 249 1696 4946 1788 5593 1138 1640 2547 5231 3267 583 706 1721 75 49 2352 722 4451 475 309 1067 4162 18864 593 5975 378 5592
internal_value=-6.81595e-05 -0.000936982 -0.00446513 0.00970848 2.43524e-05 -0.000592631 -0.00253754 -0.00363683 0.00737969 -0.00144701 -0.00975639 -0.00487223 0.000254149 0.0254562 0.0038728 -0.00345382 0.00559876 0.00595341 -0.0140853 -0.00372554 -0.00309716 -0.0106684 0.0234121 0.00506624 0.00265778 -0.00193547 -0.00275542 -0.00155782 -0.0163491 0.00228234
internal_weight=34200.4 31409.1 6725.65 2791.24 24683.5 22223.7 13256.1 11315.6 2431.65 4282.78 2442.88 9440.76 3615.74 359.596 1940.48 994.691 2459.75 1249.52 1448.19 7880.25 7359.49 667.035 136.413 2426.91 1806.02 6047.53 2366.22 2174.64 191.585 8967.67
internal_count=102623 95412 21094 7211 74318 67318 42301 36649 6379 12841 8253 31056 10726 832 5652 3354 7000 3625 4899 25825 24037 2115 358 6925 5229 19586 7101 6568 533 25017
is_linear=0
shrinkage=0.05


Tree=6
num_leaves=31
num_cat=0
split_feature=1 1 4 4 5 5 1 1 7 7 5 0 4 7 2 4 5 1 6 7 5 1 2 4 5 4 5 0 7 1
split_gain=175.328 119.875 87.6479 53.5198 46.1476 43.42 35.4284 30.8745 26.8899 22.015 19.4732 19.0623 18.5139 17.0608 16.9217 28.9575 17.0619 16.0544 15.6813 15.311 15.2883 14.8855 14.6506 14.1178 13.5406 13.4286 13.1323 12.3798 19.7196 13.9642
threshold=-2.1652590036392207 1.3183171153068545 1.2503287792205813 0.37860499322414404 42.261503219604499 60.581890106201179 -0.91220143437385548 3.0070450305938725 13.165757179260256 9.7869219779968279 40.850788116455085 25.503791809082035 0.56518089771270763 16.987233161926273 0.86614471673965465 1.2733848094940188 67.249897003173842 -3.736973643302917 86.097873687744155 94.032909393310561 31.479763984680179 -1.7449846267700193 0.75314325094223034 1.6237486004829409 30.3453483581543 0.15684945136308673 61.557601928710945 41.379785537719734 59.669864654541023 0.89648091793060314
decision_type=2 2 2 2 2 2 2 2 2 2 2 2 2 2 2 2 2 2 2 2 2 2 2 2 2 2 2 2 2 2
left_child=5 2 3 25 6 8 9 22 -1 -5 19 -12 -7 -14 16 24 18 23 -9 -4 -20 -6 -3 -10 -16 -2 -24 -8 -29 -30
right_child=1 7 10 4 21 12 27 14 17 -11 11 -13 13 -15 15 -17 -18 -19 20 -21 -22 -23 26 -25 -26 -27 -28 28 29 -31
leaf_value=0.0033064266157093835 -0.022748759972151571 0.0085641809993044059 0.00089402862513522727 -0.014733874296509152 0.0126898699868474 0.00112483613603954 -0.0099126973013753845 0.01012555541371004 0.033486753581169953 0.0029211016190939581 -0.0041595446481579755 0.0082965458891286013 0.022806801576191717 0.047263845092582371 -0.025215451739296669 0.017680866155159701 0.04870409207098933 0.012528568125151374 0.060364207380433556 -0.045423997794710867 0.021891244739968743 0.00043071582001577243 0.00094192849209680468 0.0029481413143183895 0.0018315185555739491 -0.0088325584709956825 0.012517186493029714 -0.0023692031851302742 -0.0093327312825800795 -0.0021353652182381669
leaf_weight=742.50961823761463 182.94172246754169 1236.4841857552528 4639.7471295297146 194.91054145991802 260.02957767248154 46.650551468133926 1649.0330738127232 269.82407069206238 185.21978275477886 1876.8395266383886 364.72269566357136 1945.8429222255945 141.84332402050495 143.39194260537624 57.41731221973896 361.15582063794136 48.440207317471504 907.79913623631001 32.896136775612831 17.910833969712257 120.07314786314964 5187.4288423657417 2572.1391337513924 47.563344895839691 238.44388283789158 3307.1409067362547 270.83083875477314 3426.1626027822495 2840.7488326579332 883.52546820044518
leaf_count=2072 712 3346 13861 643 715 119 5375 650 427 5417 1103 5660 334 316 148 891 101 2339 64 65 287 15758 7439 111 579 10738 765 10598 9337 2653
internal_value=4.64818e-05 -0.000895621 -0.00224553 -0.00394218 -0.00274027 0.0136506 -0.00462244 0.00604535 0.0107117 0.00126012 0.00257758 0.00633035 0.0303259 0.0351017 0.0133659 0.00818009 0.0205963 0.0155325 0.0173759 0.000715915 0.0301649 0.0010159 0.00402071 0.027247 -0.00341744 -0.00956201 0.00204463 -0.00600743 -0.0051068 -0.00762527
internal_weight=34199.7 31984.7 26777 19808.8 16318.7 2214.98 10871.2 5207.7 1883.09 2071.75 6968.22 2310.57 331.886 285.235 1128.25 657.017 471.234 1140.58 422.793 4657.66 152.969 5447.46 4079.45 232.783 295.861 3490.08 2842.97 8799.47 7150.44 3724.27
internal_count=102623 96905 82635 61946 50496 5718 34023 14270 4949 6060 20689 6763 769 650 2720 1618 1102 2877 1001 13926 351 16473 11550 538 727 11450 8204 27963 22588 11990
is_linear=0
shrinkage=0.05


Tree=7
num_leaves=31
num_cat=0
split_feature=3 3 3 3 3 3 4 7 5 6 4 7 4 7 2 5 7 2 7 3 3 2 5 2 3 5 5 5 3 2
split_gain=477.675 419.239 138.786 76.025 71.763 60.3911 52.3705 44.3205 39.9285 36.1457 27.8776 26.3007 26.2176 26.0382 20.956 20.6928 19.6877 19.6678 20.2222 18.2685 19.0714 35.3877 18.5367 20.036 16.941 15.7331 15.5131 14.0953 13.9139 13.7706
threshold=-0.036305639892816537 0.029951020143926147 -0.016406453214585778 0.017263816669583324 0.054734349250793464 -0.062481001019477837 0.35017067193984991 76.691967010498061 46.537178039550788 70.825572967529311 1.399665951728821 12.818972110748293 0.17456486821174624 13.813766002655031 0.55851316452026378 62.045480728149421 28.582323074340824 0.8381275236606599 17.886878013610843 -0.0078932456672191603 0.0073002071585506209 0.53473427891731273 52.648447036743171 0.22323635220527652 0.090265348553657546 64.623107910156264 65.222805023193374 27.033579826354984 -0.0033174697309732433 0.72703462839126598
decision_type=2 2 2 2 2 2 2 2 2 2 2 2 2 2 2 2 2 2 2 2 2 2 2 2 2 2 2 2 2 2
left_child=5 2 8 6 7 -1 12 27 11 26 19 -2 14 -7 -4 -11 -10 18 -12 22 -21 -22 23 -8 -6 -9 -5 -3 -16 -14
right_child=1 4 3 9 24 13 10 25 16 15 17 -13 29 -15 28 -17 -18 -19 -20 20 21 -23 -24 -25 -26 -27 -28 -29 -30 -31
leaf_value=-0.027676447919719335 0.0040118706085559936 -0.027012868016752064 0.044958498566296974 -0.0079579927821005342 -0.019171792302235979 -0.0050100642876797835 0.0089090893762710944 -0.0048445020191615687 0.0089791657327283787 0.0024192217146327567 0.014379424005991619 -0.0075161641210348927 0.015009549157630989 -0.016528547191383049 -0.013361117009555976 0.023198934355348151 -0.0012407644214339594 0.010309838713756951 -0.0010952414550183941 0.010187034808398993 -0.0033826582102448842 0.0085591070019383243 0.015068157720572751 -0.00061482459107524174 -0.031925516713020234 0.010333894708587581 0.012328166422896024 -0.013128152695883308 0.027311663322739651 0.0038973523716148853
leaf_weight=1040.175446420908 586.99196936190128 229.79781228303909 122.77426575124264 1373.0757018923759 964.40442955493927 684.32007916271687 824.27610614895821 1373.8910688310862 828.28933204710484 1882.5816624909639 232.40991169214249 3148.893425449729 1532.9162821918726 1733.5231559425592 31.725104928016663 127.94887368381023 1093.166800275445 611.81834198534489 2304.4475798308849 6286.5410116612911 837.92559404671192 2389.4818382561207 334.14126953482628 1673.2203161418438 356.67597864568233 194.95296822488308 101.18565930426121 893.43577119708061 62.356831029057503 340.78098618984222
leaf_count=2453 1817 544 498 3862 2465 1975 2645 3969 2661 5755 776 8891 5138 4535 85 454 3250 1983 6850 20354 2446 7644 1121 4992 805 633 333 2409 227 1053
internal_value=1.62954e-05 0.00199826 0.00426091 0.00612791 -0.0130706 -0.0176024 0.00746494 -0.00838678 -0.00269237 -0.000618927 0.00646266 -0.00570485 0.0148934 -0.0132685 0.0313523 0.00374163 0.00316478 0.00226309 0.000322444 0.00753373 0.00858304 0.00545869 0.00400818 0.00252846 -0.0226151 -0.00295835 -0.00656566 -0.0159688 0.0135965 0.0129885
internal_weight=34198.1 30740.1 26726.9 21069.6 4013.16 3458.02 17584.8 2692.08 5657.34 3484.79 15494.3 3735.89 2090.55 2417.84 216.856 2010.53 1921.46 3148.68 2536.86 12345.6 9513.95 3227.41 2831.64 2497.5 1321.08 1568.84 1474.26 1123.23 94.0819 1873.7
internal_count=102623 93660 82835 66216 10825 8963 55812 7555 16619 10404 48811 10708 7001 6510 810 6209 5911 9609 7626 39202 30444 10090 8758 7637 3270 4602 4195 2953 312 6191
is_linear=0
shrinkage=0.05


Tree=8
num_leaves=31
num_cat=0
split_feature=3 0 1 1 4 0 3 3 1 1 0 5 5 3 4 4 1 0 2 1 3 1 0 5 1 0 0 4 3 2
split_gain=104.825 39.4105 39.2201 36.7192 48.0905 31.1412 30.8573 44.9558 33.1661 31.5564 25.1838 24.9617 23.3977 23.1211 24.1282 20.3258 21.1332 19.4721 19.4596 18.7551 16.9638 16.8671 16.8375 16.0115 15.6216 15.1562 15.0218 14.9599 14.7659 18.4876
threshold=0.037919767200946815 60.991558074951179 0.67017146944999706 3.8307118415832524 0.7770485281944276 80.735717773437514 0.01436104252934456 -0.016406453214585778 -1.1573583483695982 0.68522647023201 78.022289276123061 31.479763984680179 43.997915267944343 0.01836048532277346 1.0236366391181948 0.73502960801124584 0.081053718924522414 45.497110366821296 0.76990050077438366 2.2311719655990605 0.018744755536317829 3.4891840219497685 71.59232330322267 12.86699151992798 2.3103787899017338 48.007261276245124 56.604238510131843 0.48554392158985143 -0.01033500488847494 0.32343204319477087
decision_type=2 2 2 2 2 2 2 2 2 2 2 2 2 2 2 2 2 2 2 2 2 2 2 2 2 2 2 2 2 2
left_child=1 6 11 5 -5 15 7 -1 17 12 13 18 23 -4 21 -2 -17 27 -3 25 -13 -15 -6 -10 -12 -8 -18 -9 -25 -30
right_child=3 2 10 4 22 -7 19 8 9 -11 24 20 -14 14 -16 16 26 -19 -20 -21 -22 -23 -24 28 -26 -27 -28 -29 29 -31
leaf_value=0.0021762490254268029 0.016180761658232786 0.003621402313599273 -0.0026719143321244955 0.059445746088621645 0.044156270926397061 -0.0049560840529905906 0.011550596644515876 0.0097012386795948813 0.0048232750410420041 0.0024741212557773205 -0.014814497567173316 -0.019240746560977792 -0.010234354367398229 0.010861940455754029 -0.0011438974893774947 -0.005489450812212044 0.047669034134532814 0.016248691853580688 -0.010382117108548262 0.042567687211350277 -0.0083735155972487346 0.048977133980972032 0.0097254128304838702 0.00087565990282418606 0.002816277832334897 0.0025118518170321891 0.0084678966026761546 -0.0011191937555284233 -0.0096737917054904015 -0.003465888965810798
leaf_weight=8976.8661921322346 747.52940090000629 505.00084783136845 2364.0847193151712 75.832225605845451 41.488596498966217 445.7835129648447 623.72946621477604 428.80207820236683 536.04680407047272 1876.825077906251 496.38810324668884 687.50397978723049 1553.0083359181881 589.57915808260441 631.99466519057751 313.04002691805363 25.113210648298264 263.93773232400417 487.63980916142464 33.375060901045799 751.80016322433949 30.528863161802292 246.3080325871706 1227.1621239483356 168.21510098874569 1808.5516072362661 908.82605168223381 1252.3850064426661 1640.4902527332306 4459.4596259742975
leaf_count=25017 1933 1633 7101 161 87 1276 1696 1237 1648 5593 1640 2547 5231 1688 1868 784 56 706 1721 75 2352 69 584 3818 475 5229 2330 3709 5699 14660
internal_value=-6.27809e-05 -0.000890095 -0.00428702 0.00920002 0.0240227 0.0069913 3.38131e-05 -0.000555185 -0.00240739 -0.00344605 -0.00140637 -0.00935762 -0.00462606 0.000237715 0.00573136 0.0096616 0.00575354 0.00362285 -0.0032579 0.00534055 -0.0135644 0.0127384 0.0146889 -0.00351839 -0.010352 0.00482973 0.009522 0.00164066 -0.00412866 -0.00513541
internal_weight=34197.3 31393.4 6712.74 2803.92 363.629 2440.29 24680.6 22215 13238.1 11293 4280.79 2431.94 9416.17 3616.19 1252.1 1994.51 1246.98 1945.12 992.641 2465.66 1439.3 620.108 287.797 7863.16 664.603 2432.28 933.939 1681.19 7327.11 6099.95
internal_count=102623 95412 21094 7211 832 6379 74318 67318 42301 36649 12841 8253 31056 10726 3625 5103 3170 5652 3354 7000 4899 1757 671 25825 2115 6925 2386 4946 24177 20359
is_linear=0
shrinkage=0.05


Tree=9
num_leaves=31
num_cat=0
split_feature=3 3 3 1 1 3 4 4 1 2 3 7 4 1 3 0 0 4 0 2 4 3 7 3 0 7 2 1 4 2
split_gain=319.059 116.941 85.0027 80.9139 57.7563 47.3445 39.9612 39.3826 34.4955 33.9903 30.5236 28.8701 27.8502 27.5689 24.1585 23.8554 22.594 21.7733 21.1947 21.017 19.3647 19.2038 18.6736 28.2565 18.31 18.1634 17.2127 18.6727 16.9575 19.2488
threshold=-0.03322359919548034 0.029308335855603222 -0.091040495783090578 0.96411079168319713 -2.6992359161376949 -0.020325815305113789 0.35474123060703283 0.97780376672744762 3.8307118415832524 0.69403380155563366 -0.0033174697309732433 9.3130159378051776 1.569064259529114 -0.91220143437385548 0.022967688739299778 23.106293678283695 34.306829452514656 0.4016441702842713 41.379785537719734 0.8419899344444276 0.58277264237403881 -0.054338609799742692 77.00016021728517 0.054734349250793464 71.951473236083999 11.734355926513674 0.8419899344444276 0.42434442043304449 1.4124618768692019 0.29094710946083074
decision_type=2 2 2 2 2 2 2 2 2 2 2 2 2 2 2 2 2 2 2 2 2 2 2 2 2 2 2 2 2 2
left_child=2 3 28 4 -2 11 14 26 -5 15 -10 -6 13 16 -7 20 -8 -17 -15 -20 -4 -19 -9 -24 -12 -14 -3 -28 29 -1
right_child=1 7 9 8 5 6 12 22 10 -11 24 -13 25 18 -16 17 -18 21 19 -21 -22 -23 23 -25 -26 -27 27 -29 -30 -31
leaf_value=0.052678949359539852 0.013452273628176548 0.0043120181783330947 -0.014554847525324861 0.0020748784758990095 -0.016708458322204765 -0.013493576202511208 -0.0075540677818295033 0.01856966998161123 0.046291491770676034 0.063643159689269854 -0.017663237889458616 0.0023843921027604294 -0.025050003020447222 -0.011649157514942289 0.0093991872798347212 0.00059133139098002251 0.0023918474652559105 0.021402184616240855 -0.0049852454375738861 -0.013091920141390821 0.0063075785491105082 0.011521121347099449 0.0022911190629111506 0.016202912095143806 0.024247247450950082 0.00058427089996649772 0.010935814153919622 -0.0094257699709130813 0.024103456809652441 0.015227919550332564
leaf_weight=165.87068447470665 447.57760240137577 1443.3421269804239 128.59685970842838 4462.3814171850681 212.84656734764576 1981.3669821470976 875.9393737912178 570.6669502556324 84.200533986091614 30.121814236044884 46.229612767696381 2836.8927752226591 71.032740697264671 1918.2603623569012 122.35969635844231 328.79766245186329 1640.2771564871073 684.12646239995956 7645.5757713615894 892.88197675347328 823.62511965632439 1748.3979694843292 896.5707466006279 615.62275950610638 59.733627796173096 2543.080739185214 141.44663326442242 552.02943514287472 183.42174419760704 43.25713212788105
leaf_count=336 1133 3866 410 13143 667 6898 2786 1395 192 63 108 8279 246 6549 342 870 4747 1595 24628 3137 2289 4548 2609 1483 141 7810 381 1500 373 99
internal_value=4.45973e-05 -0.00174691 0.0130646 -0.00300713 -0.00431821 -0.0047017 -0.00569356 0.00597045 0.00296364 0.0107435 0.0238194 0.00105187 -0.00482053 -0.00576927 -0.0121621 0.0103144 -0.0010705 0.0126677 -0.00689994 -0.00583298 0.00349012 0.0143001 0.010863 0.00795469 0.00596255 -0.000112284 0.00120144 -0.00527267 0.0351999 0.0449324
internal_weight=34196.5 30060.3 4136.22 25840.6 21188.1 20740.5 17690.8 4219.68 4652.55 3743.67 190.164 3049.74 15587 12972.9 2103.73 3713.54 2516.22 2761.32 10456.7 8538.46 952.222 2432.52 2082.86 1512.19 105.963 2614.11 2136.82 693.476 392.55 209.128
internal_count=102623 92040 10583 80806 67222 66089 57143 11234 13584 9775 441 8946 49903 41847 7240 9712 7533 7013 34314 27765 2699 6143 5487 4092 249 8056 5747 1881 808 435
is_linear=0
shrinkage=0.05


Tree=10
num_leaves=31
num_cat=0
split_feature=3 3 1 1 3 0 3 4 3 7 3 1 0 0 7 0 1 1 2 3 4 4 3 7 1 0 0 1 2 3
split_gain=443.102 388.84 141.687 182.097 146.848 72.5628 66.7354 66.3862 64.2027 62.7113 59.7738 51.8801 44.2574 44.0661 41.7357 34.7884 41.9481 33.4821 39.6636 29.4035 29.1758 28.595 22.0635 21.7108 20.5898 20.4969 20.3853 20.1478 25.8633 23.793
threshold=-0.034697011113166802 0.029951020143926147 -1.3932262063026426 1.0221790075302126 -0.015159771312028168 29.079660415649418 0.054734349250793464 0.35474123060703283 -0.059368811547756188 79.13245010375978 0.017263816669583324 2.2311719655990605 28.452461242675785 31.193346023559574 76.691967010498061 39.594282150268562 -0.47097559273242945 0.59884479641914379 0.82027217745780956 0.021140029653906826 1.4256046414375307 0.17456486821174624 0.015895130112767223 18.771075248718265 0.76257446408271801 64.07480621337892 40.235408782958991 -0.65649026632308949 0.32655639946460729 -0.0069610164500772944
decision_type=2 2 2 2 2 2 2 2 2 2 2 2 2 2 2 2 2 2 2 2 2 2 2 2 2 2 2 2 2 2
left_child=8 2 12 4 5 -4 14 19 -1 10 15 -5 -2 -10 -3 27 -17 18 20 21 23 -6 24 -18 -11 -12 -7 -9 29 -29
right_child=1 6 3 11 7 26 -8 9 13 22 25 -13 -14 -15 -16 16 17 -19 -20 -21 -22 -23 -24 -25 -26 -27 -28 28 -30 -31
leaf_value=-0.025886304444571174 0.0033270594079844295 -0.01542941477937879 0.012880134528345993 -0.0010111386954193592 0.039355035603770308 -0.00030126200875777684 -0.021821318019920918 0.0096283267403546539 -0.0053767320437157345 0.029108970730848574 -0.0058884376428118591 -0.014532110046838834 -0.010631867837855241 -0.018561181431050247 -0.0027736318255965941 0.0005346162469934447 0.053555699880718614 0.0013504126223862344 0.026157875233655831 -0.0033048767704415452 0.001715161200490538 0.01832310250894393 0.011096522494841977 0.011059800432743757 0.01298167588202395 0.0077553392404277862 -0.0081128718187467794 0.018399075552461584 0.0091569500436253625 0.038681810439711327
leaf_weight=1184.3426309376955 801.97126676142216 1115.567791312933 781.65057551860809 3508.8391999304295 181.15369468927383 1745.0690644979477 1306.2124789059162 999.34681214392185 1303.496035322547 559.99551400542259 1040.6403025239706 889.25331738591194 1944.9551454484463 1233.455235928297 1565.749185115099 1814.2596734911203 30.274426445364952 1151.4896600097418 387.04322551190853 139.40994611382484 963.18906439840794 1498.1233810484409 627.38951434195042 4152.3977160900831 306.08500714600086 374.27153055369854 1601.7537838965654 389.47841185331345 365.47863870859146 229.95959717035294
leaf_count=2855 2468 2953 2581 10439 710 5227 3270 3221 3754 2060 2979 2366 5353 3174 4602 5460 129 3487 1398 407 2926 5133 2044 13518 1010 1190 4502 1336 1173 898
internal_value=1.32661e-05 0.00200239 0.00419407 0.00543818 0.00752668 -0.000836334 -0.0125538 0.00979667 -0.0162742 0.00857933 0.00736707 -0.00374495 -0.00655653 -0.011787 -0.0080391 0.00866908 0.0072773 0.00910738 0.0107217 0.0187602 0.00956071 0.0205919 0.0182369 0.0113674 0.0234094 -0.00227939 -0.00403982 0.0146301 0.0197052 0.0259288
internal_weight=34192.3 30471 26483.5 23736.6 19338.5 4128.47 3987.53 15210 3721.29 13391.3 11897.8 4398.09 2746.93 2536.95 2681.32 10482.9 8498.65 6684.39 5532.9 1818.69 5145.86 1679.28 1493.47 4182.67 866.081 1414.91 3346.82 1984.26 984.917 619.438
internal_count=102623 92840 82015 74194 61389 12310 10825 49079 9783 42829 37715 12805 7821 6928 7555 33546 26918 21458 17971 6250 16573 5843 5114 13647 3070 4169 9729 6628 3407 2234
is_linear=0
shrinkage=0.05


Tree=11
num_leaves=31
num_cat=0
split_feature=3 0 1 4 1 0 5 1 1 3 3 0 5 1 2 1 3 5 2 5 3 2 3 5 3 2 0 3 3 5
split_gain=93.9925 36.2573 42.7693 34.1911 56.2485 28.9695 28.7809 28.2576 39.1659 27.7678 23.7699 23.4362 22.9037 20.8178 19.4798 18.911 18.3579 24.7382 22.1263 21.0505 17.7109 17.2833 16.9636 16.8588 22.6467 16.4709 16.6243 14.9394 15.4508 21.8959
threshold=0.037919767200946815 55.454999923706062 0.74681550264358532 1.1885251998901369 3.8307118415832524 75.486751556396499 34.505744934082038 0.28752085566520696 -0.77662330865859974 0.01836048532277346 0.020749106071889404 82.501388549804702 56.833103179931648 2.4912399053573613 0.76990050077438366 2.3103787899017338 -0.01033500488847494 47.515941619873054 0.32343204319477087 10.242949008941652 0.022967688739299778 0.25234122574329382 -0.0069610164500772944 61.557601928710945 0.079456128180027022 0.58588516712188732 34.060539245605476 0.0056998929940164098 -0.039159854874014847 70.511138916015639
decision_type=2 2 2 2 2 2 2 2 2 2 2 2 2 2 2 2 2 2 2 2 2 2 2 2 2 2 2 2 2 2
left_child=1 7 6 4 11 9 10 8 21 -4 14 23 -6 -11 -3 -7 -10 18 19 -18 -8 -1 -21 -2 -25 26 -9 28 29 -28
right_child=3 2 5 -5 12 15 20 25 16 13 -12 -13 -14 -15 -16 -17 17 -19 -20 22 -22 -23 -24 24 -26 -27 27 -29 -30 -31
leaf_value=0.00055298441776685157 0.01597440045835118 -0.0019304094353277995 -0.00086204521123844273 0.0020976775409615568 0.053591401781746796 -0.01216415934888357 -0.013951237504040571 -0.0087160108175550147 -0.00022627070453887853 0.0056549150210278704 0.0069114254324606026 -0.0081303830423127936 0.01092294378625305 0.026005584348558389 -0.011873146564436516 0.0040506758587225741 0.038977216745899046 -0.014998720420110604 -0.0015085839384191993 -0.0012502626341182306 -0.0045313524413649678 0.0057250662695756847 -0.014184346277104099 -0.0031688046628481543 0.025292178492673879 -0.00019986487700315283 0.020518725895511555 0.04014443328537215 0.0051745938290259788 -0.010091903037803183
leaf_weight=5990.6636699289083 961.57796773314476 1429.8188542723656 3188.4249737113714 1157.5978686511517 113.51267477869987 712.59302717447281 1500.1729758828878 168.18383103609085 3839.0340214371681 1021.584944024682 482.15522745251656 154.45492035150528 43.504659473896027 143.29260869324207 751.55601753294468 240.50595909357071 22.10573236644268 532.88920110464096 3341.2986871749163 363.83485773205757 747.67835162580013 2211.5252749025822 835.98872776329517 293.89957596361637 91.703538954257965 1429.238607391715 364.04368090629578 34.631595954298973 1956.1299233883619 69.586471170186996
leaf_count=17136 2438 4589 9388 2947 243 2316 5202 488 11305 2954 1399 479 97 367 2714 669 64 1808 10830 1223 2236 6217 3077 801 206 4451 860 87 5854 178
internal_value=-5.78674e-05 -0.000843243 -0.00328911 0.0086923 0.0132948 -0.000176968 -0.00665156 0.00033787 -0.000547302 0.00155165 -0.00313535 0.0103174 0.0417693 0.00815827 -0.00535601 -0.00807249 -0.00283746 -0.00480454 -0.00361408 -0.00937143 -0.010818 0.00194751 -0.0102622 0.0124324 0.00359974 0.00410968 0.00648544 0.00753999 0.0070675 0.0156065
internal_weight=34193.2 31376.9 10217.8 2816.25 1658.65 5306.4 4911.38 21159.2 17137.3 4353.3 2663.53 1501.64 157.017 1164.88 2181.37 953.099 8935.15 5096.12 4563.23 1221.93 2247.85 8202.19 1199.82 1347.18 385.603 4021.81 2592.58 2424.39 2389.76 433.63
internal_count=102623 95412 31834 7211 4264 15694 16140 63578 51660 12709 8702 3924 340 3321 7303 2985 28307 17002 15194 4364 7438 23353 4300 3445 1007 11918 7467 6979 6892 1038
is_linear=0
shrinkage=0.05


Tree=12
num_leaves=31
num_cat=0
split_feature=4 5 5 4 7 4 2 7 5 5 0 7 6 2 2 0 2 7 5 0 6 5 7 2 4 4 5 2 6 0
split_gain=105.137 83.7065 37.6648 32.0314 21.2893 20.2398 17.8171 16.1745 15.5847 14.2976 17.6353 13.3762 12.7171 12.5424 11.7999 13.8958 11.758 13.1103 11.8426 16.3098 11.5295 11.1688 15.4336 14.8512 11.1372 11.0279 15.2284 10.0969 10.596 9.98388
threshold=0.64852353930473339 61.557601928710945 36.60206604003907 1.7700520157814028 9.7869219779968279 0.2669628113508225 0.66333714127540599 41.148345947265632 20.881221771240238 44.679376602172859 38.97740554809571 17.579239845275882 8.705569267272951 0.2877082377672196 0.1918192729353905 32.315572738647468 0.39100851118564611 7.7844984531402597 32.499729156494148 51.829185485839851 4.7327992916107187 29.083949089050297 91.31116104125978 0.77310347557067882 2.4056390523910527 1.2503287792205813 36.775093078613288 0.12912345677614215 7.0015671253204355 23.106293678283695
decision_type=2 2 2 2 2 2 2 2 2 2 2 2 2 2 2 2 2 2 2 2 2 2 2 2 2 2 2 2 2 2
left_child=4 2 3 16 -1 6 -6 9 -8 10 12 13 -7 -4 15 27 17 -2 -18 -20 -11 -9 -23 -24 -17 -16 -27 28 -13 -3
right_child=1 29 11 -5 5 7 8 21 -10 20 -12 14 -14 -15 25 24 18 -19 19 -21 -22 22 23 -25 -26 26 -28 -29 -30 -31
leaf_value=-0.017417850246226756 -0.01388432546309463 0.018963996446166545 -0.00022859906282755388 0.0040936547683885598 -0.01165068761903057 0.0084438132581909093 -0.02421354666496366 -0.006778930708111721 0.0050318963947073607 0.040032909774510392 0.0016200204225094259 0.018128080486871093 -0.0081591753406386539 -0.034578084498395126 0.0019557058253514398 0.011942103114896794 -0.0047749406835719543 0.00067962445710153 -0.010770952687984562 0.0053223542459670918 0.0036175247591924229 -0.0032594466523055542 0.039073067446918443 0.0045002641430032077 0.031700848691711331 0.045068186527541312 0.0060221137973368406 0.014136970918253998 -0.004804527685378944 0.010078948662137403
leaf_weight=271.69582498073578 161.71143017709255 390.29139029979706 1215.2236583083868 2689.3002474009991 1172.6611912250519 128.53332540392876 53.087403103709221 2358.7953895181417 320.99252687394619 22.100697040557861 1471.2622190415859 60.35405358672142 1123.0658867806196 27.169673085212708 3412.0621304214001 481.58177195489407 4258.749247610569 3476.2153801769018 205.02444997429848 678.24256412684917 1317.3642572015524 4160.6466823220253 36.017476409673691 225.78026285767555 83.715190023183823 25.25315123796463 2236.0149261951447 157.49086275696754 304.49870362877846 1664.8002728223801
leaf_count=881 491 1003 3614 7700 3944 400 200 7478 1005 65 4430 163 3547 88 10174 1358 13162 10417 626 2024 3857 12637 98 650 210 58 6405 431 880 4627
internal_value=4.26507e-05 0.00216908 0.00115621 -0.000680725 -0.00357267 -0.00326907 -0.00861976 -0.00250584 0.000881541 -1.08687e-05 -0.00209137 0.00378864 -0.00645413 -0.000979782 0.00466489 0.00943558 -0.00214312 3.22345e-05 -0.00368216 0.00158677 0.00421837 -0.00400047 -0.00251852 0.0092567 0.0148682 0.00375029 0.00645817 0.00355623 -0.00101101 0.0117663
internal_weight=34189.7 21527.7 19472.6 11469.2 12662 12390.3 1546.74 10843.6 374.08 4062.33 2722.86 8003.36 1251.6 1242.39 6760.97 1087.64 8779.94 3637.93 5142.02 883.267 1339.46 6781.24 4422.44 261.798 565.297 5673.33 2261.27 522.344 364.853 2055.09
internal_count=102623 63431 57801 34420 39192 38311 5149 33162 1205 12299 8377 23381 3947 3702 19679 3042 26720 10908 15812 2650 3922 20863 13385 748 1568 16637 6463 1474 1043 5630
is_linear=0
shrinkage=0.05


Tree=13
num_leaves=31
num_cat=0
split_feature=3 3 3 0 3 3 3 0 4 7 0 5 4 5 4 3 2 0 3 5 5 2 7 0 3 3 2 7 5 0
split_gain=404.39 347.742 114.431 75.0744 63.2013 62.7781 53.5819 43.5228 42.7287 36.8024 33.2406 24.4157 23.9393 22.7013 21.4323 21.2644 18.1567 17.6522 21.4186 17.3651 17.2512 17.2481 18.556 16.4386 16.6466 14.8979 29.4555 14.402 14.2404 13.766
threshold=-0.036305639892816537 0.029951020143926147 -0.016406453214585778 29.079660415649418 0.017263816669583324 0.047844484448432929 -0.062481001019477837 58.913034439086921 0.35017067193984991 76.691967010498061 25.904295921325687 62.045480728149421 1.399665951728821 51.119274139404304 0.17456486821174624 0.090265348553657546 0.55851316452026378 26.699747085571293 -0.0078932456672191603 64.623107910156264 52.648447036743171 0.8381275236606599 17.886878013610843 66.760696411132827 0.010183172766119243 0.0073002071585506209 0.5783023238182069 94.032909393310561 42.894088745117195 47.297323226928718
decision_type=2 2 2 2 2 2 2 2 2 2 2 2 2 2 2 2 2 2 2 2 2 2 2 2 2 2 2 2 2 2
left_child=6 2 3 28 8 9 -1 -6 14 -3 -8 27 17 -5 16 -7 -4 -10 20 -11 29 22 -14 24 -16 -20 -27 -9 -2 -19
right_child=1 5 4 13 7 15 10 11 12 19 -12 -13 21 -15 23 -17 -18 18 25 -21 -22 -23 -24 -25 -26 26 -28 -29 -30 -31
leaf_value=-0.025995168347179173 0.0027978627829939968 -0.013934189853527524 0.040580632196436532 -0.0077930860693436787 -0.0081745334903104549 -0.016387476853119157 -0.0040539420698122094 0.00098439996508440492 0.018053276899086364 -0.0030403099346717204 -0.016504673057787606 0.019336076907346997 0.013558999274449519 0.00074420497724787577 0.015599244308933918 -0.030238360946311472 0.011685296100264898 0.0041131212865276349 0.0090645144699855254 0.015208143602290974 0.013663675890770624 0.009467309396765853 -0.001217630628928797 -0.00081179013408419563 0.0018703938986167675 -0.0023110013493987634 0.0080499066163718987 0.023367896035932506 0.012978534190176059 -0.0037895442307680849
leaf_weight=1012.2171098738909 715.2164593487978 948.71535770595074 126.1957929879427 3242.7204067409039 1230.4072625786066 1383.6373470723629 812.55716882646084 1958.7150545120239 341.26611092686653 1134.1224771291018 1575.4151841253042 220.12190119922161 234.00857983529568 1024.7291043996811 1401.2536019384861 346.49251869320869 95.512169778347015 1426.9734150320292 6217.5901322513819 147.29785571992397 307.46802152693272 616.26872585713863 2307.0365433990955 230.50161148607731 262.09858141839504 988.56930489838123 2241.1203993558884 74.600384011864662 660.87615452706814 897.75129665434361
leaf_count=2453 2192 2551 498 9147 3459 3646 2368 5920 1167 3328 4142 760 776 3097 4709 805 312 4414 19945 495 1020 1983 6850 686 796 2911 7134 265 2183 2611
internal_value=8.6032e-06 0.00181612 0.00385824 -0.00246829 0.00554418 -0.0120142 -0.0163545 -0.000611479 0.00675622 -0.00646935 -0.0122681 0.00351805 0.00585075 -0.00574305 0.0134238 -0.0191614 0.0281325 0.00683897 0.00652214 -0.00094267 0.0025334 0.00196313 0.000143171 0.0117019 0.013436 0.00763348 0.00487856 0.00180563 0.00768719 0.00106131
internal_weight=34181.5 30781.3 26821 5643.54 21177.5 3960.27 3400.19 3483.84 17693.6 2230.14 2387.97 2253.44 15578.1 4267.45 2115.56 1730.13 221.708 12420.7 12079.5 1281.42 2632.19 3157.31 2541.05 1893.85 1663.35 9447.28 3229.69 2033.32 1376.09 2324.72
internal_count=102623 93660 82835 16619 66216 10825 8963 10404 55812 6374 6510 6945 48811 12244 7001 4451 810 39202 38035 3823 8045 9609 7626 6191 5505 29990 10045 6185 4375 7025
is_linear=0
shrinkage=0.05


Tree=14
num_leaves=31
num_cat=0
split_feature=3 0 4 5 5 3 3 5 3 3 6 6 5 0 2 5 6 3 4 0 3 0 3 2 4 4 3 5 3 3
split_gain=84.9469 34.0759 30.6202 31.226 29.6003 27.2384 36.4282 20.2678 18.618 18.5836 15.0696 14.3303 14.2294 13.1704 13.1519 13.0031 21.6005 14.9817 16.6129 19.8474 15.5127 13.0357 13.4235 12.8857 12.5613 13.3461 12.2041 12.0064 11.9883 16.1255
threshold=0.037919767200946815 60.991558074951179 1.1885251998901369 60.581890106201179 35.357156753540046 0.013456908054649832 -0.016406453214585778 61.557601928710945 0.0066172687802463779 0.079456128180027022 84.012481689453139 86.42663955688478 63.52258491516114 84.552082061767592 0.90106523036956798 36.422637939453132 42.493259429931648 -0.048338279128074639 2.1238330602645878 45.31263732910157 -0.11359470710158347 51.829185485839851 -0.017410669475793835 0.69064703583717357 0.8725377917289735 2.1238330602645878 0.071653258055448546 35.020421981811531 -0.066737391054630266 -0.036305639892816537
decision_type=2 2 2 2 2 2 2 2 2 2 2 2 2 2 2 2 2 2 2 2 2 2 2 2 2 2 2 2 2 2
left_child=1 5 3 26 8 6 15 -8 27 14 -11 -10 -7 -13 -5 21 17 18 19 20 -17 22 -1 28 -6 -26 -2 -3 -18 -30
right_child=2 4 -4 9 24 12 7 -9 11 10 -12 13 -14 -15 -16 16 23 -19 -20 -21 -22 -23 -24 -25 25 -27 -28 -29 29 -31
leaf_value=0.0044495343540393384 0.014916228960101127 -0.0069444110596057033 0.0020062470287754881 -0.0068815360612717244 -0.0045635779784192606 0.0055496691656751664 -0.0019079326411721336 -0.014904848627983878 0.005268533407878296 0.032428368529786998 -0.00059467667065432736 -0.0040335870881787125 -0.01324678443380408 0.027056030768825956 0.022264706945230368 -0.01906290870042748 -0.0087467055088005768 -0.0033493364901712205 0.013480067633752863 0.047287446097270154 0.00115364027270992 -0.0070256266262856276 0.018032586403212369 -0.018121419765496583 -0.013015819616381563 -0.0010375018640476222 0.028962680773871142 0.032104316123070076 0.017044343500682506 0.0045830851963108467
leaf_weight=2827.9916829317808 969.52603191137314 1000.5539676398039 1158.6022092550993 330.56528498232365 1927.1177336871624 2577.5358236134052 12684.171840563416 307.22721420228481 1336.4640727192163 78.390103846788406 61.768390223383904 885.48462587594986 104.78077520430088 35.428012609481812 43.837359413504601 105.53079187870026 116.8355757445097 2897.7319072932005 296.29887045919895 21.82777900993824 940.89815530180931 229.97140322625637 194.39457212388515 54.725071310997009 1194.7383089959621 288.74269206821918 183.98089911043644 20.080284371972084 356.40767133235931 955.94982606172562
leaf_count=7808 2482 3210 2947 925 6090 7334 40615 1043 4113 171 145 2811 309 111 123 216 262 8639 696 48 2401 632 529 149 3847 850 418 62 888 2749
internal_value=-5.12551e-05 -0.000799516 0.00825043 0.0125875 -0.00396497 5.86329e-05 -0.000521595 -0.00221529 -0.000572154 0.00234483 0.017875 0.0019616 0.00481541 -0.00283755 -0.00346892 0.00192363 0.000493695 -0.00131512 0.00300467 9.91467e-05 -0.000885168 0.00445 0.00532317 0.0056892 -0.00722589 -0.0106844 0.0171566 -0.00617615 0.00660093 0.00796729
internal_weight=34187.6 31360.9 2826.67 1668.07 6688.61 24672.3 21990 12991.4 3278.01 514.561 140.158 2257.38 2682.32 920.913 374.403 8998.56 5746.21 4262.29 1364.56 1068.26 1046.43 3252.36 3022.39 1483.92 3410.6 1483.48 1153.51 1020.63 1429.19 1312.36
internal_count=102623 95412 7211 4264 21094 74318 66675 41658 10307 1364 316 7035 7643 2922 1048 25017 16048 12000 3361 2665 2617 8969 8337 4048 10787 4697 2900 3272 3899 3637
is_linear=0
shrinkage=0.05


Tree=15
num_leaves=31
num_cat=0
split_feature=3 3 1 3 1 7 4 3 0 3 1 2 4 4 4 7 1 1 3 0 7 0 1 4 1 3 3 1 1 1
split_gain=281.047 116.245 58.9209 55.5905 44.9624 47.6217 44.9157 33.9586 40.8548 33.2972 37.8102 33.2646 30.5028 29.5007 25.9031 25.7932 24.7459 22.3757 22.2072 21.4104 19.735 19.0173 26.9702 20.2936 18.1788 19.8344 18.0969 20.7277 16.6914 15.9017
threshold=-0.031885895878076546 0.029308335855603222 1.3183171153068545 -0.079790048301219926 -1.1341357827186582 9.7869219779968279 1.2396411299705508 -0.0091218408197164518 38.97740554809571 0.0020979807013645773 3.0070450305938725 0.5898229479789735 0.38803136348724371 1.4124618768692019 0.45696093142032629 21.526841163635257 -3.736973643302917 0.49590396881103521 0.090265348553657546 34.306829452514656 90.932949066162124 32.061138153076179 0.26594221591949468 1.794523358345032 3.8307118415832524 0.11132054030895235 0.0077522797510027894 -0.41017213463783259 1.7883123159408572 -0.23867618292570111
decision_type=2 2 2 2 2 2 2 2 2 2 2 2 2 2 2 2 2 2 2 2 2 2 2 2 2 2 2 2 2 2
left_child=3 2 4 12 5 -2 24 15 -9 10 28 21 -1 -14 26 -6 -7 -8 -19 -18 -12 -5 -23 -24 -3 -26 27 -10 -4 -16
right_child=1 6 9 11 7 16 17 8 14 -11 20 -13 13 -15 29 -17 19 18 -20 -21 -22 22 23 -25 25 -27 -28 -29 -30 -31
leaf_value=-0.020968912405444504 -0.014375442015030025 0.0030135327783287818 0.00042917518931875377 0.0055923741581773755 -0.0082534997914372101 0.026275686850998216 0.023710892337925768 -0.015690673886272124 -0.0010927894919511253 -0.0011814793195650947 0.020997622559242965 0.038894264117578028 0.040074842155349115 0.016808694439040591 -0.00086274035648932447 -2.5108614664234642e-05 -0.0024732250796963067 0.0066657780276204864 0.026278202847394933 0.0060113188181147859 0.058683398462976134 0.017999775279002216 0.0025939997658446217 0.035492562532469185 -0.022619955157276231 0.017214478283613329 -0.0050814271911303558 -0.016573574101696555 0.01266155574241257 -0.0055263994884982891
leaf_weight=32.468449398875237 434.00200024247169 2457.3548328578472 609.08409705758095 2099.007544696331 1203.5410681217909 112.88379463553429 351.04392039775848 1073.4966962486506 265.23695337772369 1658.1140139847994 139.55973708629608 93.858659699559212 284.03083379566669 261.85382567346096 2452.8745422959328 4563.9569978266954 1285.0398653447628 1044.6408693641424 167.47409088909626 1764.5468889176846 46.252747997641563 991.02997589111328 626.709542542696 50.665019735693932 137.21180614829063 40.46530744433403 1052.5415599942207 1170.1416123658419 514.39647755026817 7172.6188969314098
leaf_count=70 1382 6665 1810 5756 3896 258 882 3870 855 4782 341 218 591 546 7643 13767 3913 2837 359 4882 102 2462 1602 110 323 86 3479 4242 1409 23452
internal_value=-7.67624e-05 -0.00182983 -0.00309826 0.0116574 -0.00396979 0.00115563 0.00588015 -0.00494231 -0.00634194 0.00352501 0.00948539 0.00949201 0.0261139 0.0289144 -0.00551345 -0.00174218 0.00328704 0.0125949 0.00937556 0.00243609 0.0303784 0.00875951 0.0127441 0.00505469 0.00189682 -0.0135478 -0.0100613 -0.013713 0.00602989 -0.00433795
internal_weight=34156.1 29716.5 25518.3 4439.62 22550.9 3596.47 4198.19 18954.4 13186.9 2967.41 1309.29 3861.27 578.353 545.885 12113.4 5767.5 3162.47 1563.16 1212.11 3049.59 185.812 3767.41 1668.4 677.375 2635.03 177.677 2487.92 1435.38 1123.48 9625.49
internal_count=102590 91235 80083 11355 71639 10435 11152 61204 43541 8444 3662 10148 1207 1137 39671 17663 9053 4078 3196 8795 443 9930 4174 1712 7074 409 8576 5097 3219 31095
is_linear=0
shrinkage=0.05


Tree=16
num_leaves=31
num_cat=0
split_feature=3 3 1 1 3 0 3 3 0 0 7 1 3 7 3 0 1 0 2 7 0 1 7 3 7 1 2 1 3 1
split_gain=388.19 307.238 120.304 159.633 156.955 64.5487 61.5038 60.6362 55.5141 54.2003 60.9088 48.1355 43.4468 39.1098 38.422 35.9244 33.9957 42.0807 29.0604 25.9047 23.25 20.4701 19.4042 18.5539 18.0318 19.6404 23.4742 17.8773 16.4626 16.1285
threshold=-0.039159854874014847 0.029951020143926147 -1.1573583483695982 0.87845599651336681 -0.01033500488847494 30.910502433776859 0.017263816669583324 0.054734349250793464 25.503791809082035 62.028755187988288 19.968794822692875 2.3957558870315556 -0.059368811547756188 76.691967010498061 -0.023934963159263131 63.159358978271491 -0.54748681187629689 41.379785537719734 0.80563172698020946 76.054401397705092 23.599410057067875 -2.2350875139236446 94.560756683349624 0.010183172766119243 62.835578918457038 0.33245092630386358 0.72401976585388195 -0.76160705089569081 -0.0035168568138033147 0.57238170504570018
decision_type=2 2 2 2 2 2 2 2 2 2 2 2 2 2 2 2 2 2 2 2 2 2 2 2 2 2 2 2 2 2
left_child=12 2 8 4 5 -4 9 13 -2 10 27 19 -1 -3 -7 -8 -12 -18 -11 28 -14 -10 -21 24 -19 26 -26 -6 -5 -20
right_child=1 7 3 11 6 14 15 -9 21 18 16 -13 20 -15 -16 -17 17 23 29 22 -22 -23 -24 -25 25 -27 -28 -29 -30 -31
leaf_value=-0.024883981653564917 0.0070697042296625923 -0.014283200252111137 0.010741641623373247 -0.001015772367609583 0.017866465819621116 -0.00954997572706082 -0.0034059029024749382 -0.020514637056091946 -0.015217023884919731 0.01543210980242771 0.0030662488356718535 -0.014434750307981871 -0.0031818872220732695 -0.0020006793253375247 0.00057069715317068783 0.010367781839452785 0.021787177216020127 0.0087571429864342458 0.037913413753586207 0.0015782420714959941 -0.015954491592866243 -0.0054046403198510125 0.023923053376607953 0.0034542721289613047 0.017561223643382078 0.010699601726040522 0.042726151711589798 0.036527779646923018 -0.010337714795361261 0.020483423911803939
leaf_weight=1153.3637330532074 821.98796208202839 1116.7463243454695 1151.9802175015211 1060.4070021063089 259.01288314163685 1356.9528457075357 1162.9200929701328 1247.4714527577162 678.44440127909184 938.84251739084721 1704.5706988722086 742.13628412783146 492.00580318272114 1544.4455352127552 3035.8032794892788 798.42085608839989 793.23297137022018 3373.3892197012901 293.31275518238544 2632.0964363962412 1291.6482859998941 2454.158366009593 100.88267537951469 1038.1639503091574 503.6541800647974 935.07148244976997 113.5654523819685 254.38338685035706 855.88151605427265 242.40718625485897
leaf_count=2837 2601 3000 3744 3159 884 3777 3398 3188 1799 3149 5226 1980 1444 4572 9147 2585 2780 10790 1139 7986 3419 7056 359 3190 1715 3033 454 980 2357 842
internal_value=5.69555e-05 0.00169233 0.00356939 0.00493539 0.00720089 0.00020701 0.0103255 -0.0114188 -0.00449516 0.0118504 0.0103908 -0.00260972 -0.0173214 -0.00715493 -0.00255565 0.00220108 0.00937621 0.010968 0.0207344 -0.000722153 -0.0124313 -0.00752976 0.00240306 0.00952896 0.0108093 0.015269 0.0221914 0.027113 -0.00517928 0.0300265
internal_weight=34147.4 31210.3 27301.7 23347.1 17955.7 5544.74 12410.9 3908.66 3954.59 10449.6 8975.04 5391.4 2937.02 2661.19 4392.76 1961.34 8461.65 6757.08 1474.56 4649.27 1783.65 3132.6 2732.98 5963.84 4925.68 1552.29 617.22 513.396 1916.29 535.72
internal_count=102590 94890 84130 72674 56833 16668 40165 10760 11456 34182 29052 15841 7700 7572 12924 5983 27188 21962 5130 13861 4863 8855 8345 19182 15992 5202 2169 1864 5516 1981
is_linear=0
shrinkage=0.05


Tree=17
num_leaves=31
num_cat=0
split_feature=3 4 1 7 1 1 5 3 3 2 1 5 1 3 7 7 5 3 3 5 2 1 1 3 4 5 3 2 7 4
split_gain=75.894 36.14 45.9144 31.2828 43.897 41.3833 27.2424 32.049 18.3046 22.6987 19.9875 18.1817 18.8331 33.5648 16.9697 16.215 21.5525 15.7932 19.3016 19.662 17.106 15.616 15.4709 17.6632 14.0197 13.0798 13.0168 12.2806 28.9581 19.9492
threshold=0.040175061672925956 1.2503287792205813 4.3063683509826669 84.561107635498061 0.74681550264358532 -0.77662330865859974 35.187551498413093 -0.019566743634641167 0.026209269650280479 0.76310238242149364 0.28752085566520696 36.245265960693366 2.3103787899017338 -0.0065111354924738398 48.907461166381843 72.854946136474624 24.126719474792484 -0.011131405830383299 0.0073002071585506209 12.440238952636721 0.068810138851404204 4.9975657463073739 1.2161180973052981 -0.0051797353662550441 3.9748823642730717 56.107215881347663 0.054734349250793464 0.19896681606769565 12.459702014923097 2.2532359361648564
decision_type=2 2 2 2 2 2 2 2 2 2 2 2 2 2 2 2 2 2 2 2 2 2 2 2 2 2 2 2 2 2
left_child=3 2 15 4 5 27 8 14 9 10 17 22 -13 -14 -8 26 -17 20 19 -19 -7 -15 -5 -24 -6 -4 -2 29 -29 -1
right_child=1 -3 25 11 24 6 7 -9 -10 -11 -12 12 13 21 -16 16 -18 18 -20 -21 -22 -23 23 -25 -26 -27 -28 28 -30 -31
leaf_value=-0.0012142634851456642 0.010906269711180958 0.00072365604297988651 0.051972330891952925 -0.0076225428334138999 0.0038157092137120342 0.01200696287652963 -0.00136883063358848 -0.007314157788341877 0.011724758390864953 -0.0082225154175902641 0.0048946928785951315 -0.013191472493326637 -0.026926547467431179 0.0051030843431883873 0.013375488304280678 0.032339830997956856 0.0044320979285389032 0.008981576352681311 0.0026587739019658285 -0.0061628431868619568 -0.00025884354244283617 0.042198062099045773 -0.018689943848109992 0.004583228484332515 0.028412790679073568 0.016323175363210162 0.027302878514220426 0.022100839344164527 0.0028936679938688214 0.0073786941381636384
leaf_weight=4176.1647187769413 287.45684678852558 962.41620682179928 90.885813027620316 691.07792119681835 4962.6054396778345 382.25589786469936 1827.9873463958502 4607.6292866915464 284.87154668569565 1001.6892162114382 1525.0208375602961 1016.8899482488632 81.55988122522831 204.06870158016682 218.47103010118008 75.157603472471237 870.00764879584312 231.14090555906296 1086.8480814695358 2945.0044945180416 1108.6320751607418 32.952711060643196 90.455564916133881 825.87346328794956 58.615443930029869 35.890960559248924 209.08227387070656 208.86217235028744 3246.7257290631533 805.74541662633419
leaf_count=12118 721 2425 189 2392 14269 1117 5208 15289 749 3451 4705 3307 225 584 576 185 2322 729 3413 10036 3222 82 247 2452 157 78 467 593 9157 2125
internal_value=1.98239e-05 0.0083512 0.0130314 -0.000647004 -0.00014322 -0.00104445 -0.00260152 -0.00500158 -0.000737028 -0.00116574 -0.000194621 -0.00555636 -0.00986804 0.000740139 0.000205209 0.0104946 0.00665126 -0.0015435 -0.00309264 -0.00506072 0.00288605 0.0102603 -0.00197412 0.00228581 0.00410284 0.0418799 0.0178105 0.00176419 0.00405459 0.000175512
internal_weight=34152 2530.9 1568.48 31621.1 28678.3 23657 15219.6 6654.09 8565.46 8280.59 7278.9 2942.88 1335.47 318.581 2046.46 1441.7 945.165 5753.88 4262.99 3176.15 1490.89 237.021 1607.41 916.329 5021.22 126.777 496.539 8437.5 3455.59 4981.91
internal_count=102590 6387 3962 96203 86914 72488 48495 21073 27422 26673 23222 9289 4198 891 5784 3695 2507 18517 14178 10765 4339 666 5091 2699 14426 267 1188 23993 9750 14243
is_linear=0
shrinkage=0.05


Tree=18
num_leaves=31
num_cat=0
split_feature=3 3 3 4 4 7 2 7 3 7 4 3 7 5 6 3 5 7 6 7 5 3 7 2 4 5 2 3 3 5
split_gain=253.168 105.131 50.0038 40.7 34.9669 32.2258 29.2688 25.716 29.7326 26.7508 23.0888 24.3693 32.0244 22.4122 20.3671 18.9933 18.8794 28.7989 18.3414 17.5619 16.7602 16.6175 16.0594 15.8544 19.6068 15.7842 14.3233 13.3547 13.184 12.5944
threshold=-0.031885895878076546 0.029308335855603222 -0.11359470710158347 1.2503287792205813 0.45696093142032629 86.377071380615249 0.69064703583717357 9.7869219779968279 -0.0210583321750164 75.722114562988295 0.4016441702842713 -0.054338609799742692 12.102416992187502 74.87723541259767 43.788549423217781 -0.0028966816607862707 36.60206604003907 91.31116104125978 82.954185485839858 19.085709571838382 32.155632019042976 -0.015794008038938042 32.266260147094734 0.86161866784095775 0.70052054524421703 71.42560195922853 0.6497684419155122 0.0086890426464378851 0.049791863188147552 56.833103179931648
decision_type=2 2 2 2 2 2 2 2 2 2 2 2 2 2 2 2 2 2 2 2 2 2 2 2 2 2 2 2 2 2
left_child=2 4 -1 23 5 21 10 -6 9 22 -4 14 -13 -14 -12 20 -10 19 -5 -18 -7 25 -9 24 -3 -2 -22 -23 -20 -26
right_child=1 3 6 18 7 15 -8 8 16 -11 11 12 13 -15 -16 -17 17 -19 28 -21 26 27 -24 -25 29 -27 -28 -29 -30 -31
leaf_value=0.034903169903663565 -0.00062071806045601154 0.00035873051623367281 -0.0017055050752135003 0.019463709675094781 -0.013434785549836343 0.054424890050523006 0.05565046174707218 -0.00052592801490008209 -0.0036571027337265133 0.036269806888091713 0.014017887235966087 -0.0029709005608355068 0.012048195958282349 -0.01151277403806464 0.033486047819963997 -0.00019863481589371072 -0.010346349005746713 0.017161171589426642 0.0026048587053566687 -0.00011937308778679015 -0.027196351821298228 -0.011001844262227117 0.0083325295378040374 -0.0036542179858904764 0.0056728952858233683 -0.03184560470168879 0.022246399329285793 -0.0047872691965339595 0.0140322583521005 0.019493421287615279
leaf_weight=209.126958578825 981.42257840931416 1085.7573022395372 415.59047451615334 539.2119577974081 478.80810941755772 32.157854944467545 34.613151416182518 1365.7377107292414 11014.46434597671 61.349361822009087 1117.6857910752296 536.67452472448349 1887.8366948217154 106.63546553254128 152.69819691777229 274.33401890099049 453.64757485687733 229.47955146431923 530.04195086658001 5622.1146628558636 18.225469052791595 2747.1022235453129 818.09940265119076 882.46368172764778 416.68228097259998 42.213370934128761 74.62531866133213 1261.4216683357954 481.8620433807373 272.73936954140663
leaf_count=402 2973 2930 1138 1354 1582 82 71 3999 34557 159 2632 1589 4890 300 333 869 1511 669 1509 17570 59 9425 2266 2418 1093 147 218 3997 1162 686
internal_value=-7.23064e-05 -0.00174132 0.0110338 0.00557945 -0.00295079 -0.0065093 0.0098598 -0.00198649 -0.00170632 0.00370735 0.00948396 0.0107072 0.00787112 0.0107885 0.0163579 0.0071622 -0.0024081 -0.000226254 0.0120155 -0.000882972 0.0233157 -0.00759424 0.00279259 0.00182312 0.00454597 -0.00190839 0.0125414 -0.00904621 0.00804651 0.0111404
internal_weight=34144.8 29684 4460.86 4208.76 25475.2 5431.5 4251.73 20043.7 19564.9 2245.19 4217.12 3801.53 2531.15 1994.47 1270.38 399.343 17319.7 6305.24 1551.12 6075.76 125.009 5032.16 2183.84 2657.64 1775.18 1023.64 92.8508 4008.52 1011.9 689.422
internal_count=102590 91235 11355 11152 80083 17770 10953 62313 60731 6424 10882 9744 6779 5190 2965 1228 54307 19750 4025 19081 359 16542 6265 7127 4709 3120 277 13422 2671 1779
is_linear=0
shrinkage=0.05


Tree=19
num_leaves=31
num_cat=0
split_feature=3 3 3 0 3 3 3 0 7 0 3 0 5 5 3 3 0 5 0 0 7 2 3 7 5 2 3 0 3 0
split_gain=355.868 280.863 103.184 70.3075 59.5725 56.9539 44.638 38.2996 38.0622 23.8284 23.3631 21.3476 21.3189 21.0583 19.9348 14.7072 15.1759 13.9773 13.6663 13.1438 12.1418 11.884 11.7886 11.7088 11.6118 11.5455 11.095 14.1083 11.0329 9.58886
threshold=-0.038172256201505654 0.029951020143926147 -0.012761042919009922 28.109896659851078 0.017263816669583324 0.058139413595199592 -0.059368811547756188 63.159358978271491 76.691967010498061 26.317458152771 -0.023934963159263131 30.624063491821293 51.119274139404304 62.045480728149421 -0.0078932456672191603 0.010183172766119243 61.409502029418952 68.812889099121108 80.735717773437514 42.157188415527351 23.361619949340824 0.226303406059742 -0.027228204533457753 94.032909393310561 47.515941619873054 0.73016104102134716 -0.11359470710158347 24.511051177978519 0.11132054030895235 17.841533660888675
decision_type=2 2 2 2 2 2 2 2 2 2 2 2 2 2 2 2 2 2 2 2 2 2 2 2 2 2 2 2 2 2
left_child=6 2 3 21 11 8 26 -6 17 -8 -5 -4 20 23 19 -16 -17 -3 -10 -13 -12 22 29 -9 -23 -15 -1 -28 -7 -2
right_child=1 5 4 10 7 28 9 13 18 -11 12 14 -14 25 15 16 -18 -19 -20 -21 -22 24 -24 -25 -26 -27 27 -29 -30 -31
leaf_value=-0.035501433755882293 0.011683934200944695 -0.015665156797471821 0.0148778675512969 -0.0078698214890509655 -0.0058788774905128207 -0.018500361080681062 -0.0042234845330466082 0.0017332007677510531 -0.0046333440341359564 -0.015805061463369088 0.0019047205580915482 0.007030231975440596 0.0064764445293486244 0.005154361944640546 0.0078784861463982361 0.00095427203997244337 0.0080557665376448494 0.0053723313403852523 0.006525131190467783 -0.0010153428065778987 -0.0052596543929694104 0.0051822247057693449 0.010492770415844959 0.022035932266841057 0.027633596689588348 0.030243275476166821 -0.014727379373151252 -0.027046983623909018 -0.03246155879503209 -0.0031905250833783858
leaf_weight=179.2672646343708 147.50668513774872 1069.9836444109678 747.08478742837906 2337.8066950440407 1724.3059634566307 917.82627129554749 699.08274278044701 1502.137311398983 1294.7342220842838 1217.720666706562 813.65536284446716 786.49134527146816 685.64634996652603 76.17757160961628 10148.380682766438 1790.7113937586546 1297.3443857580423 85.244122579693794 348.19200783967972 1431.695081025362 2164.7807281464338 97.882508277893066 706.33290971815586 74.538001641631126 139.9096931964159 115.19925178587437 396.46902523934841 561.54028882086277 167.30392064154148 408.14898160099983
leaf_count=402 483 2848 2498 6605 4944 2398 2037 4564 3758 3239 2480 2485 2162 237 32253 5404 4128 269 1101 4255 6232 305 2290 262 510 427 1075 1360 386 1193
internal_value=4.89551e-05 0.00164937 0.00344548 -0.00154468 0.00534628 -0.0109293 -0.0162373 -0.000576778 -0.00715845 -0.0115811 -0.00396438 0.00662303 -0.00147258 0.00459413 0.00622399 0.00695911 0.00393773 -0.0141128 -0.00226848 0.00183734 -0.00330248 0.00813859 0.00620658 0.00269302 0.0183919 0.0202566 -0.0240849 -0.0219486 -0.0206529 0.000758111
internal_weight=34133.1 31079 27195.7 7501.67 19694.1 3883.28 3054.08 3492.36 2798.15 1916.8 6001.89 16201.7 3664.08 1768.05 15454.6 13236.4 3088.06 1155.23 1642.93 2218.19 2978.44 1499.78 1261.99 1576.68 237.792 191.377 1137.28 958.009 1085.13 555.656
internal_count=102590 94477 83717 22260 61457 10760 8113 10434 7976 5276 17479 51023 10874 5490 48525 41785 9532 3117 4859 6740 8712 4781 3966 4826 815 664 2837 2435 2784 1676
is_linear=0
shrinkage=0.05


Tree=20
num_leaves=31
num_cat=0
split_feature=3 4 7 1 1 5 3 1 5 3 2 1 3 6 7 7 1 3 1 1 4 7 1 3 3 2 2 5 4 5
split_gain=68.576 33.4339 28.9338 39.7791 37.2516 25.9172 29.47 24.2589 17.1132 16.8262 20.8496 18.3828 16.9511 22.7126 16.8062 16.6986 16.5219 28.2812 16.4255 16.3391 17.1567 15.7077 14.7593 19.7648 14.0191 18.1266 17.8945 13.247 12.9007 12.8428
threshold=0.040175061672925956 0.73502960801124584 84.561107635498061 0.74681550264358532 -0.77662330865859974 35.187551498413093 -0.019566743634641167 3.8307118415832524 37.496641159057624 0.026209269650280479 0.76990050077438366 0.15899153053760531 0.0048252048436552295 52.213066101074226 68.750480651855483 62.036956787109382 2.3103787899017338 -0.0065111354924738398 4.9975657463073739 4.3063683509826669 1.9247420430183413 48.907461166381843 1.2161180973052981 -0.0051797353662550441 -0.01033500488847494 0.063513986766338362 0.32032223045825964 24.126719474792484 3.9748823642730717 11.001615047454836
decision_type=2 2 2 2 2 2 2 2 2 2 2 2 2 2 2 2 2 2 2 2 2 2 2 2 2 2 2 2 2 2
left_child=2 7 3 4 -1 9 21 15 22 10 11 24 13 -13 -14 -2 -10 -18 -19 -3 -21 -7 -4 -24 25 -6 29 -17 -5 -26
right_child=1 19 8 28 5 6 -8 -9 16 -11 -12 12 14 -15 -16 27 17 18 -20 20 -22 -23 23 -25 26 -27 -28 -29 -30 -31
leaf_value=0.0016757876606467792 0.02575569136524208 0.0020873868138567178 -0.0074926477791302272 0.0036334320119803566 0.011978378519101199 -0.0013386289778617453 -0.0070340772027474288 0.043356725695961773 -0.013034003985920263 0.011276833297971274 -0.0080115001402930354 0.0072618678837900784 0.021840024069056201 -0.004329078327321721 0.0028345752253984887 0.03824201407607497 -0.025827883446508416 0.0038550001454705457 0.042260840892624607 0.027627978472678297 -0.0028941693263915048 0.012817304491907719 -0.019242978424855832 0.0043434525282226794 0.02115899893942776 -0.00089007015951614527 -0.00138110262360235 0.0069936039537631268 0.027111771785194153 -0.010489110886702815
leaf_weight=8444.4414272755384 202.49742802977562 1495.951170951128 721.04115062952042 4971.1862164139748 369.45361018180847 1827.3903719186783 4592.9278122186661 74.378792732954025 944.43335251510143 285.96041126549244 954.12278307974339 835.44199161231518 228.70740862190723 855.34932677447796 236.70889769494534 36.254349023103714 75.997131139039993 188.43849523365498 32.665617600083351 134.2588334530592 70.069497182965279 219.50320482254028 98.865962162613869 874.03880685567856 33.235222145915031 1055.3765530288219 2799.3887613266706 525.7586759775877 59.205297663807869 903.15806496143341
leaf_count=23993 470 3817 2504 14269 1069 5208 15289 149 3090 749 3304 2476 651 2867 759 84 216 534 78 302 166 576 272 2595 101 3084 9114 1399 157 3248
internal_value=2.33671e-05 0.0079289 -0.000611728 -0.000127673 -0.000986762 -0.00246628 -0.00481034 0.0160971 -0.00533961 -0.000647376 -0.00105965 -0.000153114 0.0037241 0.00139816 0.0121739 0.013445 -0.00979891 0.000484891 0.00952903 0.00389885 0.0171611 0.000179414 -0.00207128 0.00194661 -0.00177309 0.00244667 -0.00338252 0.00900938 0.00390976 -0.00936583
internal_weight=34146.2 2539.17 31607 28671.6 23641.2 15196.7 6639.82 838.889 2935.48 8556.9 8270.94 7316.82 2156.21 1690.79 465.416 764.51 1241.53 297.101 221.104 1700.28 204.328 2046.89 1693.95 972.905 5160.61 1424.83 3735.78 562.013 5030.39 936.393
internal_count=102590 6387 96203 86914 72488 48495 21073 2102 9289 27422 26673 23369 6753 5343 1410 1953 3918 828 612 4285 468 5784 5371 2867 16616 4153 12463 1483 14426 3349
is_linear=0
shrinkage=0.05


Tree=21
num_leaves=31
num_cat=0
split_feature=3 3 1 3 1 7 4 3 0 3 1 4 4 0 4 1 7 0 5 1 7 0 4 3 1 7 1 7 5 5
split_gain=227.697 95.0323 52.407 45.371 41.975 42.8185 37.3269 29.297 37.1143 29.2407 33.005 27.3616 26.5445 23.9361 22.8204 22.7039 22.6794 19.3596 18.2942 17.0099 16.8705 16.0827 28.0275 15.9534 19.68 15.2813 22.492 18.8122 15.4289 16.4583
threshold=-0.031885895878076546 0.029308335855603222 1.3183171153068545 -0.079790048301219926 -1.1341357827186582 9.7869219779968279 1.1885251998901369 -0.0091218408197164518 38.97740554809571 0.0020979807013645773 3.0070450305938725 0.38803136348724371 1.4124618768692019 32.061138153076179 0.45696093142032629 -3.736973643302917 17.886878013610843 34.306829452514656 51.423244476318366 0.14827834814786914 90.932949066162124 53.269384384155281 0.34544348716735845 0.0077522797510027894 -0.41017213463783259 66.257682800292983 0.3772562444210053 11.734355926513674 22.11900615692139 47.038970947265632
decision_type=2 2 2 2 2 2 2 2 2 2 2 2 2 2 2 2 2 2 2 2 2 2 2 2 2 2 2 2 2 2
left_child=3 2 4 11 5 -2 21 16 -9 10 -4 -1 -13 -5 23 -7 -6 -17 25 -8 -12 22 -3 24 -10 26 27 -15 -28 -30
right_child=1 6 9 13 7 15 19 8 14 -11 20 12 -14 18 -16 17 -18 -19 -20 -21 -22 -23 -24 -25 -26 -27 28 -29 29 -31
leaf_value=-0.021180398814654621 -0.01349691807618991 -0.016951586276921358 0.0057647945607870047 0.0048818007487818685 -0.0096038470991196973 0.025275990513741617 0.022431515772031452 -0.01484345233724718 -0.00050611641007906427 -0.0009867380762278164 0.019711863965738638 0.03647091055129785 0.014586946526963915 -0.0033316048230689096 -0.0039880686412734718 -0.0021635846636211264 -0.0003720703309337142 0.0059105813861283635 0.0065800467523637763 0.0088588558856595324 0.054226026572121937 -3.5263855973143776e-05 0.019230582925524025 -0.0047012786506604072 -0.015646875876251697 0.03700572127879255 0.048438196734401105 0.022694466065333346 -0.0073226212743354065 0.022771278681111423
leaf_weight=32.534407094120979 429.13676528632641 67.314890116453171 1126.0678872168064 2111.5681362748146 767.59170846641064 113.66430616378784 276.76006461679935 1061.5874701738358 263.56791432201862 1654.8231848031282 140.79912410676479 289.51884935796261 265.76945255696774 78.055844753980637 9588.4175797402859 1280.8032417297363 4990.9406617283821 1766.1300882250071 717.21046642959118 1391.2681742757559 47.299822464585304 2221.9630794674158 261.21918714046478 1048.023537799716 1155.6580610871315 86.89471173286438 17.377692028880119 628.47154738008976 193.7395481467247 59.35060453414917
leaf_count=70 1382 186 3219 5756 2532 258 695 3870 855 4782 341 591 546 226 31095 3913 15131 4882 1784 3626 102 6020 625 3479 4242 197 41 1518 484 142
internal_value=-6.78702e-05 -0.00165527 -0.00280803 0.010438 -0.00363312 0.00132285 0.00529501 -0.00457563 -0.00588079 0.00343516 0.0090033 0.0233858 0.0259969 0.00848273 -0.00509156 0.00333504 -0.00160263 0.00251654 0.0127518 0.0111108 0.0283909 0.00149145 0.011817 -0.00938003 -0.012835 0.0169124 0.0151253 0.0198192 0.00286375 -0.000265487
internal_weight=34133.5 29653 25434.5 4480.49 22465.5 3589.73 4218.53 18875.8 13117.3 2968.99 1314.17 587.823 555.288 3892.67 12055.7 3160.6 5758.53 3046.93 1781.1 1668.03 188.099 2550.5 328.534 2467.25 1419.23 1063.89 976.995 706.527 270.468 253.09
internal_count=102590 91235 80083 11355 71639 10435 11152 61204 43541 8444 3662 1207 1137 10148 39671 9053 17663 8795 4392 4321 443 6831 811 8576 5097 2608 2411 1744 667 626
is_linear=0
shrinkage=0.05


Tree=22
num_leaves=31
num_cat=0
split_feature=3 3 1 1 3 2 3 4 2 3 3 4 1 3 1 1 2 1 5 5 1 1 3 5 5 3 6 1 2 3
split_gain=326.038 253.581 110.455 139.911 108.216 53.8725 48.774 48.4329 44.4717 39.1044 38.3789 33.2034 31.8851 33.4383 28.9808 23.5317 23.2448 23.7846 22.9355 22.8732 22.4481 31.4796 22.1568 30.3846 21.6438 20.8435 16.5713 15.7293 14.9643 20.6587
threshold=-0.039159854874014847 0.031503735110163696 -1.1573583483695982 1.3183171153068545 -0.01033500488847494 0.2781993448734284 0.058139413595199592 0.35017067193984991 0.84568712115287792 0.017263816669583324 -0.059368811547756188 1.3731664419174197 0.59884479641914379 0.0077522797510027894 3.0070450305938725 0.6267993450164796 0.1488713622093201 -2.1652590036392207 68.812889099121108 61.557601928710945 -0.49686570465564722 0.38870365917682653 -0.023934963159263131 43.316612243652351 25.286257743835453 0.024005238898098472 85.715343475341811 -0.68637037277221669 0.65325546264648449 0.0039574299007654199
decision_type=2 2 2 2 2 2 2 2 2 2 2 2 2 2 2 2 2 2 2 2 2 2 2 2 2 2 2 2 2 2
left_child=10 2 16 4 22 -6 18 15 9 11 -1 20 13 -10 -5 25 -2 -18 26 -11 -9 24 -4 -24 -22 27 -3 -7 -26 -30
right_child=1 6 3 14 5 7 -8 8 12 19 -12 -13 -14 -15 -16 -17 17 -19 -20 -21 21 -23 23 -25 28 -27 -28 -29 29 -31
leaf_value=-0.023284342260064411 -0.00050286666816021165 -0.012157812460183499 -0.0038531266680922535 -0.0035861323754411926 0.017279110822079415 0.0047922500365758687 -0.019923574078159985 0.00086416496829321791 0.040587703615968966 -0.0048570521950447197 -0.011447752941943386 -0.00076456174332339467 0.0074497143181854464 0.015447857972379107 -0.018234509027348477 0.0034280005467603744 -0.018336008510756382 -0.0053874290665503199 0.0079168993643965284 0.013692034196109953 0.007278632243177513 0.0039422761904044767 -0.00050406419677023729 0.0087906195956054273 0.012872985944332713 -0.0062138045955081747 -0.0034426246006412672 0.022821394318355503 0.04611937791721793 0.018232875171405229
leaf_weight=1120.7693058550358 1873.4997002482414 1373.081248909235 2069.3817948698997 2760.3965335190296 1497.5886108875275 137.96935899555683 1072.0969018936157 1024.8452909141779 163.98618021607399 1346.6967670768499 1760.6101947575808 1426.1350859105587 1116.8012136369944 683.87200149893761 384.71177937090397 310.92539556324482 451.04752558469772 1659.2771522849798 228.61231905221939 189.59470091760159 1504.8053872734308 2010.4796080440283 2704.3570679724216 1302.8840573430061 1529.2779088169336 77.485115677118301 904.88331916928291 982.18335212767124 80.934448063373566 370.15723364055157
leaf_count=2837 5603 3766 6042 8050 5088 428 2784 3087 647 3888 4863 4243 3539 2296 996 955 1165 4773 732 629 4755 6199 8079 4175 5034 221 2657 3464 330 1265
internal_value=4.1459e-05 0.0015259 0.00314632 0.00444243 0.00594684 0.00830058 -0.0109982 0.00726276 0.00615301 0.00473452 -0.0160518 0.00614626 0.0129997 0.0203102 -0.00537793 0.015684 -0.00455637 -0.00815498 -0.00718068 -0.0025679 0.00765777 0.00892466 0.000348285 0.00251794 0.0117988 0.0188659 -0.00869585 0.0206007 0.0152335 0.0232362
internal_weight=34119.3 31238 27659.3 23675.5 20530.4 14453.7 3578.67 12956.1 11447.6 9482.93 2881.38 7946.63 1964.66 847.858 3145.11 1508.56 3983.82 2110.32 2506.58 1536.29 6520.5 5495.65 6076.62 4007.24 3485.17 1197.64 2277.96 1120.15 1980.37 451.092
internal_count=102590 94890 84951 73410 64364 46068 9939 40980 35912 29430 7700 24913 6482 2943 9046 5068 11541 5938 7155 4517 20670 17583 18296 12254 11384 4113 6423 3892 6629 1595
is_linear=0
shrinkage=0.05


Tree=23
num_leaves=31
num_cat=0
split_feature=3 0 4 5 3 6 0 3 3 5 5 7 0 6 4 3 3 5 7 7 6 3 7 3 0 6 0 0 7 4
split_gain=62.3593 30.848 29.9643 20.4172 22.9699 17.2216 15.6647 15.013 18.751 20.1553 16.7761 19.0412 14.7259 14.2111 13.4988 16.2307 13.1926 13.0077 12.9092 11.1803 13.6999 11.1557 11.2586 11.0549 12.3103 10.2275 10.0992 9.96096 9.81179 14.5631
threshold=0.040175061672925956 55.454999923706062 0.73502960801124584 34.505744934082038 0.0063991183415055284 91.40411758422853 61.193222045898445 0.013456908054649832 -0.011131405830383299 13.253776073455812 36.60206604003907 48.907461166381843 30.624063491821293 13.14171886444092 0.32030001282691961 -0.046703860163688653 -0.027228204533457753 64.623107910156264 11.37109422683716 82.76147842407228 73.666610717773452 -0.022239898331463333 58.133152008056648 0.052196791395545013 83.472496032714858 58.997386932373054 80.735717773437514 53.269384384155281 72.854946136474624 1.794523358345032
decision_type=2 2 2 2 2 2 2 2 2 2 2 2 2 2 2 2 2 2 2 2 2 2 2 2 2 2 2 2 2 2
left_child=1 7 6 4 5 -3 27 8 10 -10 -1 16 -9 -11 15 -13 25 -14 -18 20 21 22 -5 -8 -25 -12 -4 -2 -15 -30
right_child=2 3 26 19 -6 -7 23 12 9 13 11 14 17 28 -16 -17 18 -19 -20 -21 -22 -23 -24 24 -26 -27 -28 -29 29 -31
leaf_value=0.003898605199886291 0.014678818006119211 -0.0033535386955659968 0.0060559249993073026 0.038050025137850774 0.0019463077221555513 -0.019296416000301072 0.0032204448062973499 0.035401005745776093 0.0077920465975033146 -0.0084345205559925307 0.00028630833017969189 0.058135751416911845 0.0051046768590640636 -0.0020785373734004795 0.0036509782701536816 0.012840948087502808 0.0078187980258316286 -0.020694914088341135 -0.0059024946105857221 -0.0084418957462041259 0.00065859596166177581 -0.0065921175719758701 -0.00098065403943563972 0.02091938200799294 -0.0042340513772015764 0.028085213234184704 -0.0026548869580742644 0.035650673756437511 0.0023287280798541892 0.031433095996338735
leaf_weight=4378.0789598822594 101.3186821937561 1850.0536842495203 1248.8597586303949 27.806408807635307 3282.5501992553473 186.4591903090477 258.38479723036289 39.003351330757141 534.57697069644928 828.96812434494495 3389.8487690538168 23.1845812946558 1601.5157833695412 6684.6017588675022 907.18629579246044 134.59911334514618 189.7011312097311 50.393000513315201 1778.2636774033308 1658.6406973004341 1278.2880860865116 2074.5641679316759 55.063236474990845 297.64344234764576 58.14427687227726 33.41288685798645 453.60053531825542 128.33911336958408 560.47816836833954 46.550856858491898
leaf_count=12398 240 5873 3080 74 10084 616 724 101 1627 2760 9040 55 4477 21808 2484 407 602 139 5658 5257 3986 6536 148 699 153 92 1205 286 1848 133
internal_value=2.64233e-05 -0.000580231 0.00755366 -0.00280842 -0.000641724 -0.00481324 0.0152579 0.000515269 0.000123169 -0.00161201 0.00150935 -0.000110848 0.00503462 -0.00223108 0.00599862 0.0194965 -0.0013177 0.00431764 -0.00457984 -0.00507069 -0.00344319 -0.00587352 0.0121159 0.0110921 0.0168087 0.000557641 0.00373503 0.0263985 -0.00152583 0.00456064
internal_weight=34140.1 31593.8 2546.29 10413.4 5319.06 2036.51 843.83 21180.4 19489.5 8655.18 10834.3 6456.2 1690.91 8120.6 1064.97 157.784 5391.23 1651.91 1967.96 5094.36 3435.72 2157.43 82.8696 614.173 355.788 3423.26 1702.46 229.658 7291.63 607.029
internal_count=102590 96203 6387 32574 16573 6489 2102 63629 58912 28176 30736 18338 4717 26549 2946 462 15392 4616 6260 16001 10744 6758 222 1576 852 9132 4285 526 23789 1981
is_linear=0
shrinkage=0.05


Tree=24
num_leaves=31
num_cat=0
split_feature=1 1 4 5 7 4 4 7 2 5 5 5 1 5 1 0 0 1 5 7 1 2 1 4 2 6 0 2 4 0
split_gain=104.976 91.8553 58.5459 40.9872 35.9084 25.1383 22.8956 18.4788 18.1401 19.8369 17.7084 17.678 30.8926 16.8498 20.873 15.8063 15.0966 15.0398 15.1348 15.6398 14.0789 19.9177 13.7735 13.046 12.3096 16.9594 12.039 12.0214 19.7504 11.8031
threshold=-1.5552346110343931 1.3704674839973452 1.2503287792205813 63.038408279418952 9.7869219779968279 0.22987015545368197 0.38803136348724371 13.497522830963137 0.75012990832328807 29.242864608764652 18.981352806091312 35.187551498413093 -0.56072577834129322 43.316612243652351 -0.35120998322963709 76.957843780517592 21.488140106201175 1.7883123159408572 22.806666374206547 75.418964385986342 -3.736973643302917 0.047117985785007484 -2.1652590036392207 0.87887233495712291 0.67034873366355907 51.389661788940437 22.056842803955082 0.0887943170964718 2.7480424642562871 37.94383621215821
decision_type=2 2 2 2 2 2 2 2 2 2 2 2 2 2 2 2 2 2 2 2 2 2 2 2 2 2 2 2 2 2
left_child=3 2 5 4 10 24 -6 -4 17 -10 -1 12 -7 14 -9 27 -13 -3 19 -19 21 -8 -12 -11 25 -2 -23 28 -16 -30
right_child=1 8 7 -5 6 11 20 13 9 23 22 16 -14 -15 15 -17 -18 18 -20 -21 -22 26 -24 -25 -26 -27 -28 -29 29 -31
leaf_value=0.024171898801654879 -0.0092471351132558475 0.0039877171207238086 -0.0091147360100436343 0.022014164553563653 -0.004048041979846732 6.9110161994011e-05 0.0021412952264954479 0.0057320625025449601 -0.0029550971448846948 0.0014749817249397267 -0.0015343479931954097 -0.013832038586057952 -0.0065599734691486281 0.006625112721842851 -0.021666241805229747 -0.021397677940222723 -0.001366730956302174 0.059784642204232408 0.012702108318538033 0.0070138576804007272 0.0084191426883159295 0.055173656562665131 -0.016925822295925298 0.0085161259765436821 0.00073735530029037154 -0.02649537630802843 0.023439200543689885 -4.5001647571628128e-05 0.034298951373397335 -0.014738498235284612
leaf_weight=50.439202859997749 372.16579589247704 567.28163088858128 367.43911266326904 430.51206858456135 342.32059544324875 2352.8164904564619 100.20646874606609 1433.8213945776224 938.29539088904858 1153.5513450205326 444.76442608237267 250.22254590690136 6945.5219593793154 1719.5228430181742 152.39600229263306 97.70782545208931 8291.747435182333 35.810720726847649 697.65247796475887 23.09588947892189 2354.0782893747091 37.311802893877029 215.9152899235487 1530.91935095191 137.27039669454098 230.95656387507915 150.16714222729206 2645.329606115818 30.126423582434654 20.704268157482147
leaf_count=140 1327 1573 1169 990 947 7202 229 4100 2656 3199 1238 833 22726 4930 472 327 25585 77 1719 66 6298 85 699 4121 470 877 323 8077 80 55
internal_value=-6.43514e-05 -0.00109293 -0.00232256 0.00741355 0.0057125 -0.00374868 0.0081186 0.00177488 0.00513341 0.00330306 -0.0043843 -0.00337402 -0.00488258 0.00243087 0.000784299 -0.00162357 -0.00173188 0.0101423 0.014757 0.0390945 0.00969516 0.0201366 -0.0065644 0.00549046 -0.0127764 -0.0158521 0.0297549 -0.000945299 -0.0126642 0.0143251
internal_weight=34120.1 29994.4 25047.7 4125.72 3695.2 18580.7 2984.08 6467.05 4946.61 3622.77 711.119 17840.3 9298.34 6099.61 4380.09 2946.26 8541.97 1323.84 756.559 58.9066 2641.76 287.685 660.68 2684.47 740.393 603.122 187.479 2848.56 203.227 50.8307
internal_count=102590 91641 78230 10949 9959 59020 7882 19210 13411 9976 2077 56346 29928 18041 13111 9011 26418 3435 1862 143 6935 637 1937 7320 2674 2204 408 8684 607 135
is_linear=0
shrinkage=0.05


Tree=25
num_leaves=31
num_cat=0
split_feature=3 3 3 3 0 0 4 3 3 0 0 3 4 5 5 2 2 3 0 4 3 5 4 5 3 0 7 3 3 4
split_gain=298.896 230.044 78.06 85.9769 66.7417 41.4441 35.2509 34.5113 27.378 26.1551 25.7529 22.2136 20.6444 19.6192 19.54 17.8976 16.8695 16.6156 16.5413 15.6836 13.5674 16.8085 13.3355 12.0405 12.7311 20.7259 11.7823 12.3655 11.6102 11.3584
threshold=-0.040228988975286477 0.039023479446768768 -0.01334118004888296 0.017263816669583324 27.411465644836429 61.607957839965827 0.34089967608451849 -0.079790048301219926 0.090265348553657546 69.574787139892592 25.001636505126957 -0.023934963159263131 1.6042314767837527 39.659391403198249 62.045480728149421 0.7007582187652589 0.047117985785007484 -0.0078932456672191603 42.157188415527351 0.22121656686067584 0.052196791395545013 42.059305191040046 0.17456486821174624 13.253776073455812 0.0041792707052081832 62.028755187988288 83.063644409179702 0.022967688739299778 -0.052232988178730004 0.61780390143394481
decision_type=2 2 2 2 2 2 2 2 2 2 2 2 2 2 2 2 2 2 2 2 2 2 2 2 2 2 2 2 2 2
left_child=7 2 4 6 29 -5 15 -1 9 -3 -9 19 16 -13 26 22 -8 18 -18 -6 21 -11 -4 -19 -25 -26 27 -7 -12 -2
right_child=1 8 3 5 11 14 12 10 -10 20 28 13 -14 -15 -16 -17 17 23 -20 -21 -22 -23 -24 24 25 -27 -28 -29 -30 -31
leaf_value=-0.027896386177020789 0.01571396954084937 -0.017592128614069981 0.028187914268806503 -0.0072577748768199966 0.017100227563405294 0.003698658765115759 0.016205665081712253 -0.0060214242163854625 -0.026763480632903954 -0.010805368539863566 -0.022257613298613064 -0.004444072067420814 0.0005748087191520438 0.0032367378572895379 0.012862486448333356 0.0033160009939368451 0.0070316230028752815 -0.0011102010934444138 -0.0023654507529296872 -0.0081645061883547435 -0.011214824413964533 0.0067141039422438115 0.013337645676601569 0.0084798155183397964 0.0024601684739481555 0.0095326733777884674 0.0041304440124407 -0.0063957516677221292 -0.013191433719481236 0.0054030783015272862
leaf_weight=490.43686304986477 353.11979572474957 914.16703052818775 172.15659457445145 1962.7623511403799 62.964590176939964 477.77977328002453 383.36944219470024 793.72376929223537 324.39157694578171 237.15323407948017 640.0421038120985 2115.2678219825029 2148.4077427089214 1369.7753134667873 371.40254592895508 413.11294022202492 772.87642502784729 512.1635085195303 1188.3356966823339 2514.5236383080482 674.54309985041618 323.88328132033348 1240.4274143278599 5093.9240343272686 3057.7004758268595 1566.5966576486826 1211.991008117795 831.15163132548332 787.74303556978703 1096.3595614284277
leaf_count=1207 1188 2410 630 5581 215 1473 1294 2298 802 656 1630 6134 6462 4215 1226 1269 2440 1518 3494 7106 1886 1029 4098 16251 9328 5038 3755 2376 2155 3426
internal_value=3.36821e-05 0.00140956 0.00266161 0.00420062 -0.00172355 -0.00164997 0.00591704 -0.0158919 -0.0132235 -0.0111804 -0.0132417 -0.00402801 0.00510444 -0.00142518 0.00215554 0.0124703 0.00587832 0.00555357 0.00133776 -0.00754732 -0.00643651 -0.000691474 0.0151475 0.00636176 0.00675554 0.00485616 0.000578108 -0.00271114 -0.0172556 0.007915
internal_weight=34102.3 31390.3 28916.2 21404.2 7512.01 4855.09 16549.1 2711.95 2474.14 2149.75 2221.51 6062.53 14723.4 3485.04 2892.32 1825.7 12575 12191.6 1961.21 2577.49 1235.58 561.037 1412.58 10230.4 9718.22 4624.3 2520.92 1308.93 1427.79 1449.48
internal_count=102590 95300 88517 66233 22284 14411 51822 7290 6783 5981 6083 17670 45825 10349 8830 5997 39363 38069 5934 7321 3571 1685 4728 32135 30617 14366 7604 3849 3785 4614
is_linear=0
shrinkage=0.05


Tree=26
num_leaves=31
num_cat=0
split_feature=3 0 1 7 1 0 1 1 3 1 3 7 3 2 7 1 1 3 3 7 0 0 7 3 2 3 3 0 2 0
split_gain=56.3091 28.6185 34.8142 31.6565 27.7407 30.0661 27.3343 22.5791 19.8277 27.7665 18.4189 17.5095 17.8694 16.2034 23.8761 15.9923 15.4737 16.7871 15.038 22.4884 14.8339 14.079 13.1837 13.7063 13.0104 12.8852 14.2556 12.2123 12.1414 11.6319
threshold=0.040175061672925956 55.454999923706062 0.74681550264358532 79.748527526855483 4.3063683509826669 80.735717773437514 0.64134719967842113 -0.77662330865859974 -0.01452000020071864 2.3957558870315556 0.11132054030895235 72.185447692871108 0.016587371006608013 0.19896681606769565 12.459702014923097 3.2155132293701176 0.091047704219818129 0.0066172687802463779 0.01436104252934456 70.164794921875014 57.921682357788093 63.847316741943366 87.946868896484389 0.0018766411230899396 0.86161866784095775 -0.023506429977715012 -0.022663211449980732 82.501388549804702 0.7141672968864442 69.574787139892592
decision_type=2 2 2 2 2 2 2 2 2 2 2 2 2 2 2 2 2 2 2 2 2 2 2 2 2 2 2 2 2 2
left_child=1 6 11 18 5 29 7 13 -5 -10 27 -3 28 -1 -15 -7 24 25 -4 20 -20 22 -11 -24 -9 -18 -27 -6 -13 -2
right_child=4 2 3 8 10 15 -8 16 9 21 -12 12 -14 14 -16 -17 17 -19 19 -21 -22 -23 23 -25 -26 26 -28 -29 -30 -31
leaf_value=5.0776731461850253e-05 0.011962787880255815 -0.0032905125575451869 0.0019095393697231113 -0.020808246206267225 0.042564399500053259 -0.011809261478848835 0.0056079876333165503 -0.0027541958340712154 -0.0044495766322955469 0.043182674060625557 0.0043406761964799546 -0.0056107396667742721 -0.0046827745015315522 0.020856781773556272 0.0034593129429415941 0.010331979274292462 0.0059746577879672249 0.011552742494126779 0.064035950152674034 0.0049117983682486002 0.020077597252020633 0.0042850880550294691 -0.032669072778723912 0.025505969802189107 -0.034627740334610344 -0.031685821115526917 -0.0013660801234978864 0.015612594806640104 -0.017774466347666048 0.004014119277814302
leaf_weight=4987.1745126247406 968.58578513562679 2980.4664756655693 1517.0756833702326 150.43822948634624 106.13123528659344 331.55761536955833 2337.2879530787468 7422.2917798608541 2515.8899182826281 49.780344575643539 92.656694635748863 292.13773763179779 1011.9771226346493 210.91815960407257 3034.5278885960579 108.15871523320675 680.89476230740547 353.50652794539928 21.418074637651443 482.0849229991436 184.62611834704876 459.71789953112602 15.267727196216581 30.057650193572044 32.154808968305588 39.503742843866348 2081.9515295624733 69.589297562837601 688.98554676771164 876.98844237625599
leaf_count=14242 2313 9527 4352 440 221 961 6679 23721 7925 118 194 1045 3209 593 8506 265 1819 1030 51 1381 465 1279 41 73 114 124 6801 175 2668 2258
internal_value=3.06745e-05 -0.000546812 -0.00269482 7.4754e-05 0.00717221 0.00538635 0.000507905 -0.000124712 -0.00308509 -0.00221681 0.0223792 -0.00571654 -0.0093444 0.0018402 0.00458996 -0.0063631 -0.00164931 0.00128531 0.00469036 0.010821 0.024647 0.00790782 0.0254192 0.00590987 -0.00289168 -9.88739e-06 -0.00193067 0.0318909 -0.0141526 0.0081857
internal_weight=34133.8 31580.1 10399.9 5426.36 2553.67 2285.29 21180.2 18842.9 3221.15 3070.71 268.377 4973.57 1993.1 8232.62 3245.45 439.716 10610.3 3155.86 2205.2 688.129 206.044 554.824 95.1057 45.3254 7454.45 2802.35 2121.46 175.721 981.123 1845.57
internal_count=102590 96203 32574 16125 6387 5797 63629 56950 9876 9436 590 16449 6922 23341 9099 1226 33609 9774 6249 1897 516 1511 232 114 23835 8744 6925 396 3713 4571
is_linear=0
shrinkage=0.05


Tree=27
num_leaves=31
num_cat=0
split_feature=3 3 1 3 1 7 4 4 7 4 7 7 3 3 1 3 7 5 1 3 1 3 1 7 6 6 1 3 4 1
split_gain=193.881 85.0198 43.7826 42.2127 37.5875 34.8613 33.0636 24.551 24.3601 26.2208 23.4977 26.8628 21.3511 20.1532 19.9143 19.4836 25.7441 22.9507 17.7257 18.389 16.4255 20.7415 16.3936 16.5926 15.5232 14.8341 14.5785 16.3348 13.7445 13.4702
threshold=-0.028914071619510647 0.029308335855603222 1.0221790075302126 -0.11359470710158347 -1.2832777500152586 9.7869219779968279 1.2503287792205813 0.72975656390190136 70.813999176025405 0.4016441702842713 62.036956787109382 30.894639968872074 -0.015464031603187321 0.010712135117501022 -3.736973643302917 -0.052232988178730004 11.734355926513674 58.795640945434577 0.49590396881103521 0.090265348553657546 3.8307118415832524 0.0012336587533354761 0.54521164298057567 79.748527526855483 50.003385543823249 42.493259429931648 3.8307118415832524 0.11132054030895235 0.35474123060703283 -0.36284865438938135
decision_type=2 2 2 2 2 2 2 2 2 2 2 2 2 2 2 2 2 2 2 2 2 2 2 2 2 2 2 2 2 2
left_child=3 2 4 -1 5 -2 26 12 9 -5 11 29 -6 28 -7 -11 -17 -18 -8 -20 24 -22 -12 -24 25 -4 -3 -28 -14 -9
